{"learner":{"attributes":{},"feature_names":[],"feature_types":[],"gradient_booster":{"model":{"cats":{"enc":[],"feature_segments":[],"sorted_idx":[]},"gbtree_model_param":{"num_parallel_tree":"1","num_trees":"100"},"iteration_indptr":[0,1,2,3,4,5,6,7,8,9,10,11,12,13,14,15,16,17,18,19,20,21,22,23,24,25,26,27,28,29,30,31,32,33,34,35,36,37,38,39,40,41,42,43,44,45,46,47,48,49,50,51,52,53,54,55,56,57,58,59,60,61,62,63,64,65,66,67,68,69,70,71,72,73,74,75,76,77,78,79,80,81,82,83,84,85,86,87,88,89,90,91,92,93,94,95,96,97,98,99,100],"tree_info":[0,0,0,0,0,0,0,0,0,0,0,0,0,0,0,0,0,0,0,0,0,0,0,0,0,0,0,0,0,0,0,0,0,0,0,0,0,0,0,0,0,0,0,0,0,0,0,0,0,0,0,0,0,0,0,0,0,0,0,0,0,0,0,0,0,0,0,0,0,0,0,0,0,0,0,0,0,0,0,0,0,0,0,0,0,0,0,0,0,0,0,0,0,0,0,0,0,0,0,0],"trees":[{"base_weights":[-9.2821784E-4,-1.2494419E5,5.2060074E4,-2.4493325E5,1.1373762E4,1.4843386E5,-7.30457E4,-1.900461E4,-2.9560872E5,7.798834E4,-1.9131344E5,1.7767497E5,-8.43536E4,-1.4730711E5,4.6821496E4,1.0562188E3,-1.1878064E4,-9.196821E4,-2.462778E4,-1.1131236E5,1.5345662E5,-1.6304986E4,-6.565539E4,1.9337489E5,-6.2838254E4,4.2674066E4,-2.5288728E5,-1.2632821E5,1.3781339E5,1.184925E3,-7.096266E2,-4.161336E4,-4.3673813E3,2.1266939E5,-1.0757612E4,2.1732148E5,-8.1369688E3,2.1903672E5,-5.6534336E4,-2.9660834E5,-8.280927E3,-6.431147E3,-4.4157508E4,7.1918516E3,2.0192552E5,8.020659E4,1.5190913E4,-2.0372672E4,7.1181164E4,-3.3464086E4,2.9395602E4,8.858807E4,-1.2898595E4,-1.8980195E4,-9.408472E4,9.399788E3,-1.3126205E4,1.0794213E4,-1.1876208E4,7.089869E4,4.4862656E3],"categories":[],"categories_nodes":[],"categories_segments":[],"categories_sizes":[],"default_left":[0,0,0,0,0,0,0,0,0,0,0,0,0,0,0,0,0,0,0,0,0,0,0,0,0,0,0,0,0,0,0,0,0,0,0,0,0,0,0,0,0,0,0,0,0,0,0,0,0,0,0,0,0,0,0,0,0,0,0,0,0],"id":0,"left_children":[1,3,5,7,9,11,13,15,17,19,21,23,-1,25,27,29,-1,-1,-1,31,33,-1,-1,35,-1,37,39,41,43,-1,-1,-1,-1,45,-1,47,49,51,-1,53,55,-1,-1,57,59,-1,-1,-1,-1,-1,-1,-1,-1,-1,-1,-1,-1,-1,-1,-1,-1],"loss_changes":[6.6346956E11,4.9348575E11,8.7894045E11,1.7756671E11,2.1744909E11,5.6501495E11,2.9174533E11,1.6939438E9,5.2331807E9,1.88516E11,3.1921603E9,2.775464E11,0E0,4.119566E11,2.222276E11,3.9044696E7,0E0,0E0,0E0,8.584483E9,1.0851502E11,0E0,0E0,1.8513828E11,0E0,3.6736706E11,1.36571716E11,7.786586E9,7.3917596E10,0E0,0E0,0E0,0E0,4.848858E10,0E0,2.0957535E11,6.580049E10,1.1260489E11,0E0,2.3811981E10,5.5865733E9,0E0,0E0,6.811261E9,3.5060597E10,0E0,0E0,0E0,0E0,0E0,0E0,0E0,0E0,0E0,0E0,0E0,0E0,0E0,0E0,0E0,0E0],"parents":[2147483647,0,0,1,1,2,2,3,3,4,4,5,5,6,6,7,7,8,8,9,9,10,10,11,11,13,13,14,14,15,15,19,19,20,20,23,23,25,25,26,26,27,27,28,28,33,33,35,35,36,36,37,37,39,39,40,40,43,43,44,44],"right_children":[2,4,6,8,10,12,14,16,18,20,22,24,-1,26,28,30,-1,-1,-1,32,34,-1,-1,36,-1,38,40,42,44,-1,-1,-1,-1,46,-1,48,50,52,-1,54,56,-1,-1,58,60,-1,-1,-1,-1,-1,-1,-1,-1,-1,-1,-1,-1,-1,-1,-1,-1],"split_conditions":[3.4874597E-1,3.6212686E-1,6.141649E-1,2.1482825E-1,8.525955E-1,9.6847135E-1,8.2107025E-1,1.6918202E-1,9.133096E-1,2.6247972E-1,8.377742E-2,9.613373E-1,-8.43536E4,3.5033736E-1,5.116307E-1,1.14926614E-1,-1.1878064E4,-9.196821E4,-2.462778E4,8.1922156E-1,6.934322E-1,-1.6304986E4,-6.565539E4,9.5230836E-1,-6.2838254E4,3.0548364E-1,6.834446E-1,1.0969294E-1,6.481894E-1,1.184925E3,-7.096266E2,-4.161336E4,-4.3673813E3,7.8704625E-1,-1.0757612E4,4.0561937E-2,2.9783607E-1,2.7033037E-1,-5.6534336E4,3.351151E-2,1.9793536E-1,-6.431147E3,-4.4157508E4,7.573293E-1,7.8997487E-1,8.020659E4,1.5190913E4,-2.0372672E4,7.1181164E4,-3.3464086E4,2.9395602E4,8.858807E4,-1.2898595E4,-1.8980195E4,-9.408472E4,9.399788E3,-1.3126205E4,1.0794213E4,-1.1876208E4,7.089869E4,4.4862656E3],"split_indices":[4,5,4,1,5,9,4,1,1,6,0,0,0,1,1,0,0,0,0,0,6,0,0,3,0,9,9,2,2,0,0,0,0,2,0,6,2,0,0,2,0,0,0,0,0,0,0,0,0,0,0,0,0,0,0,0,0,0,0,0,0],"split_type":[0,0,0,0,0,0,0,0,0,0,0,0,0,0,0,0,0,0,0,0,0,0,0,0,0,0,0,0,0,0,0,0,0,0,0,0,0,0,0,0,0,0,0,0,0,0,0,0,0,0,0,0,0,0,0,0,0,0,0,0,0],"sum_hessian":[1E2,2.9E1,7.1E1,1.5E1,1.4E1,4E1,3.1E1,3E0,1.2E1,1.1E1,3E0,3.8E1,2E0,1.9E1,1.2E1,2E0,1E0,1.1E1,1E0,3E0,8E0,1E0,2E0,3.7E1,1E0,7E0,1.2E1,4E0,8E0,1E0,1E0,2E0,1E0,6E0,2E0,3.3E1,4E0,4E0,3E0,1E1,2E0,1E0,3E0,3E0,5E0,4E0,2E0,2E0,3.1E1,2E0,2E0,3E0,1E0,1E0,9E0,1E0,1E0,2E0,1E0,4E0,1E0],"tree_param":{"num_deleted":"0","num_feature":"10","num_nodes":"61","size_leaf_vector":"1"}},{"base_weights":[-3.422519E3,-9.317093E4,3.4020188E4,-1.7945319E5,5.0748823E3,1.0145363E5,-5.344205E4,-1.6153922E4,-6.476851E4,5.856731E4,-1.5667111E5,1.4247153E5,-1.18129234E5,-1.0799678E5,3.4599223E4,8.9778125E2,-1.0096355E4,1.3358431E5,-3.8713754E4,-5.1901035E3,-5.920838E4,5.7103668E4,2.1135481E5,5.892103E4,-7.969416E4,3.2266242E4,-1.8600503E5,-8.119956E4,1.1712341E5,1.0071844E3,-6.0318286E2,6.7946836E4,7.2831016E3,1.6498848E4,-6.845497E4,-9.7374055E4,1.5021642E5,2.3358531E5,-2.8319125E4,-8.447544E3,4.8023938E4,1.6846361E5,-4.381411E4,-2.1790447E5,-7.0387812E3,-1.0301042E4,-3.422207E4,1.6314394E5,-1.39587705E4,-1.3859236E4,1.2152732E4,-2.6606617E4,-7.620869E3,-5.6746605E4,2.6415834E4,5.7411875E4,-3.920226E4,6.3651567E3,7.344885E4,6.865576E4,-1.0963805E4,-1.6133166E4,-6.868184E4,7.989821E3,-1.1157272E4,-5.4664736E3,8.310047E2,1.2122049E4,5.3882996E4,3.8133284E3,-1.0094775E4],"categories":[],"categories_nodes":[],"categories_segments":[],"categories_sizes":[],"default_left":[0,0,0,0,0,0,0,0,0,0,0,0,0,0,0,0,0,0,0,0,0,0,0,0,0,0,0,0,0,0,0,0,0,0,0,0,0,0,0,0,0,0,0,0,0,0,0,0,0,0,0,0,0,0,0,0,0,0,0,0,0,0,0,0,0,0,0,0,0,0,0],"id":1,"left_children":[1,3,5,7,9,11,13,15,-1,17,19,21,23,25,27,29,-1,31,33,-1,-1,35,37,39,-1,41,43,45,47,-1,-1,-1,49,-1,51,53,55,57,-1,-1,-1,59,-1,61,63,65,-1,67,69,-1,-1,-1,-1,-1,-1,-1,-1,-1,-1,-1,-1,-1,-1,-1,-1,-1,-1,-1,-1,-1,-1],"loss_changes":[3.4257243E11,2.552168E11,4.300693E11,9.172723E10,1.3895859E11,3.8610996E11,1.5743477E11,1.223874E9,0E0,9.274437E10,1.9269648E10,1.9374552E11,1.9847889E11,2.2483514E11,1.3374098E11,2.820974E7,0E0,8.048868E10,2.048704E10,0E0,0E0,2.5915261E11,1.5119306E11,3.974302E10,0E0,2.1889E11,7.268218E10,1.2809232E10,5.0537054E10,0E0,0E0,0E0,8.979198E9,0E0,2.102573E9,1.3578664E11,1.5217268E11,3.7787664E10,0E0,0E0,0E0,7.026518E10,0E0,7.6108923E9,4.0362988E9,3.6106346E8,0E0,4.868522E9,2.003146E9,0E0,0E0,0E0,0E0,0E0,0E0,0E0,0E0,0E0,0E0,0E0,0E0,0E0,0E0,0E0,0E0,0E0,0E0,0E0,0E0,0E0,0E0],"parents":[2147483647,0,0,1,1,2,2,3,3,4,4,5,5,6,6,7,7,9,9,10,10,11,11,12,12,13,13,14,14,15,15,17,17,18,18,21,21,22,22,23,23,25,25,26,26,27,27,28,28,32,32,34,34,35,35,36,36,37,37,41,41,43,43,44,44,45,45,47,47,48,48],"right_children":[2,4,6,8,10,12,14,16,-1,18,20,22,24,26,28,30,-1,32,34,-1,-1,36,38,40,-1,42,44,46,48,-1,-1,-1,50,-1,52,54,56,58,-1,-1,-1,60,-1,62,64,66,-1,68,70,-1,-1,-1,-1,-1,-1,-1,-1,-1,-1,-1,-1,-1,-1,-1,-1,-1,-1,-1,-1,-1,-1],"split_conditions":[3.4874597E-1,3.6212686E-1,6.141649E-1,2.1482825E-1,2.4976209E-1,8.4702206E-1,8.2107025E-1,1.6918202E-1,-6.476851E4,5.0569636E-1,7.8941274E-1,3.6375204E-1,6.1445326E-1,3.5033736E-1,5.329076E-1,1.14926614E-1,-1.0096355E4,5.151832E-1,5.750968E-2,-5.1901035E3,-5.920838E4,3.3275288E-1,9.631299E-1,8.736749E-1,-7.969416E4,3.0548364E-1,6.834446E-1,1.0969294E-1,7.8997487E-1,1.0071844E3,-6.0318286E2,6.7946836E4,8.377742E-2,1.6498848E4,5.3718734E-1,2.8119165E-1,9.906069E-1,3.1787157E-2,-2.8319125E4,-8.447544E3,4.8023938E4,2.7033037E-1,-4.381411E4,3.351151E-2,1.9793536E-1,1.2685552E-1,-3.422207E4,6.481894E-1,8.0527866E-1,-1.3859236E4,1.2152732E4,-2.6606617E4,-7.620869E3,-5.6746605E4,2.6415834E4,5.7411875E4,-3.920226E4,6.3651567E3,7.344885E4,6.865576E4,-1.0963805E4,-1.6133166E4,-6.868184E4,7.989821E3,-1.1157272E4,-5.4664736E3,8.310047E2,1.2122049E4,5.3882996E4,3.8133284E3,-1.0094775E4],"split_indices":[4,5,4,1,4,9,4,1,0,3,0,1,2,1,1,0,0,7,0,0,0,2,1,0,0,9,9,2,0,0,0,0,0,0,0,5,7,3,0,0,0,0,0,2,0,0,0,2,0,0,0,0,0,0,0,0,0,0,0,0,0,0,0,0,0,0,0,0,0,0,0],"split_type":[0,0,0,0,0,0,0,0,0,0,0,0,0,0,0,0,0,0,0,0,0,0,0,0,0,0,0,0,0,0,0,0,0,0,0,0,0,0,0,0,0,0,0,0,0,0,0,0,0,0,0,0,0,0,0,0,0,0,0,0,0,0,0,0,0,0,0,0,0,0,0],"sum_hessian":[1E2,2.9E1,7.1E1,1.5E1,1.4E1,4E1,3.1E1,3E0,1.2E1,1.1E1,3E0,3.4E1,6E0,1.9E1,1.2E1,2E0,1E0,6E0,5E0,1E0,2E0,1.6E1,1.8E1,3E0,3E0,7E0,1.2E1,5E0,7E0,1E0,1E0,3E0,3E0,1E0,4E0,6E0,1E1,1.7E1,1E0,2E0,1E0,4E0,3E0,1E1,2E0,2E0,3E0,5E0,2E0,1E0,2E0,2E0,2E0,4E0,2E0,9E0,1E0,1E0,1.6E1,3E0,1E0,1E0,9E0,1E0,1E0,1E0,1E0,1E0,4E0,1E0,1E0],"tree_param":{"num_deleted":"0","num_feature":"10","num_nodes":"71","size_leaf_vector":"1"}},{"base_weights":[-3.8247827E3,-1.8733353E5,5.673862E3,-6.2600348E4,-1.5299462E4,-6.1805816E4,3.258468E4,-1.2466393E5,9.956856E3,8.025779E4,-2.9980127E4,-1.3730836E4,-1.5125297E5,5.9759977E4,-1.2949094E5,1.1262537E5,-8.842158E4,-1.0278617E5,2.8312357E4,7.6311456E2,-8.581903E3,-1.5820423E5,-1.1218336E4,9.242953E4,-5.816867E4,-1.1780349E4,-4.3942812E4,-2.6638855E4,1.3208189E5,5.113882E4,-6.176298E4,-1.4380862E5,-1.8402812E2,8.938151E4,-5.9196766E4,8.5610626E2,-5.127047E2,-4.976705E4,-1.220175E4,3.996696E4,2.4394875E3,-4.4115894E3,-2.1764314E4,3.0532809E4,-4.3852234E4,4.3289E4,-3.3321926E4,-6.7580347E3,4.0820344E4,-4.82162E4,-1.5232094E4,2.1563945E4,-1.0850982E4,-2.7649246E4,4.1989633E4,-2.7022932E4,6.6884507E3],"categories":[],"categories_nodes":[],"categories_segments":[],"categories_sizes":[],"default_left":[0,0,0,0,0,0,0,0,0,0,0,0,0,0,0,0,0,0,0,0,0,0,0,0,0,0,0,0,0,0,0,0,0,0,0,0,0,0,0,0,0,0,0,0,0,0,0,0,0,0,0,0,0,0,0,0,0],"id":2,"left_children":[1,3,5,-1,-1,7,9,11,13,15,17,19,21,23,25,27,29,31,33,35,-1,37,-1,39,41,-1,-1,43,45,47,-1,49,51,53,55,-1,-1,-1,-1,-1,-1,-1,-1,-1,-1,-1,-1,-1,-1,-1,-1,-1,-1,-1,-1,-1,-1],"loss_changes":[1.7711443E11,3.9013908E9,1.7815945E11,0E0,0E0,1.275455E11,2.1119225E11,4.2167222E10,1.0496746E11,2.2834822E11,1.3447552E11,8.842494E8,3.5815916E9,4.7755944E10,3.7799936E8,9.564484E10,1.2527276E11,5.8899415E10,1.01485036E11,2.0381502E7,0E0,3.1895716E9,0E0,2.9866066E10,8.0804966E8,0E0,0E0,9.1627545E10,1.0512984E11,2.8090552E10,0E0,7.5737334E9,1.5566304E10,1.1391603E11,2.2139707E10,0E0,0E0,0E0,0E0,0E0,0E0,0E0,0E0,0E0,0E0,0E0,0E0,0E0,0E0,0E0,0E0,0E0,0E0,0E0,0E0,0E0,0E0],"parents":[2147483647,0,0,1,1,2,2,5,5,6,6,7,7,8,8,9,9,10,10,11,11,12,12,13,13,14,14,15,15,16,16,17,17,18,18,19,19,21,21,23,23,24,24,27,27,28,28,29,29,31,31,32,32,33,33,34,34],"right_children":[2,4,6,-1,-1,8,10,12,14,16,18,20,22,24,26,28,30,32,34,36,-1,38,-1,40,42,-1,-1,44,46,48,-1,50,52,54,56,-1,-1,-1,-1,-1,-1,-1,-1,-1,-1,-1,-1,-1,-1,-1,-1,-1,-1,-1,-1,-1,-1],"split_conditions":[1.9400097E-2,6.079683E-1,3.4874597E-1,-6.2600348E4,-1.5299462E4,3.6212686E-1,6.141649E-1,2.1482825E-1,8.525955E-1,8.4702206E-1,4.479039E-1,1.6918202E-1,9.133096E-1,2.4976209E-1,8.377742E-2,5.883607E-2,6.1445326E-1,7.832487E-1,4.6542892E-1,1.14926614E-1,-8.581903E3,3.3309284E-1,-1.1218336E4,5.0569636E-1,7.8941274E-1,-1.1780349E4,-4.3942812E4,1.5282388E-1,9.906069E-1,8.736749E-1,-6.176298E4,8.426399E-1,1.524652E-1,6.3667196E-1,6.535798E-1,8.5610626E2,-5.127047E2,-4.976705E4,-1.220175E4,3.996696E4,2.4394875E3,-4.4115894E3,-2.1764314E4,3.0532809E4,-4.3852234E4,4.3289E4,-3.3321926E4,-6.7580347E3,4.0820344E4,-4.82162E4,-1.5232094E4,2.1563945E4,-1.0850982E4,-2.7649246E4,4.1989633E4,-2.7022932E4,6.6884507E3],"split_indices":[9,3,4,0,0,5,4,1,5,9,2,1,1,4,0,6,2,4,9,0,0,5,0,3,0,0,0,5,7,0,0,1,1,4,1,0,0,0,0,0,0,0,0,0,0,0,0,0,0,0,0,0,0,0,0,0,0],"split_type":[0,0,0,0,0,0,0,0,0,0,0,0,0,0,0,0,0,0,0,0,0,0,0,0,0,0,0,0,0,0,0,0,0,0,0,0,0,0,0,0,0,0,0,0,0,0,0,0,0,0,0,0,0,0,0,0,0],"sum_hessian":[1E2,4E0,9.6E1,3E0,1E0,2.7E1,6.9E1,1.4E1,1.3E1,3.9E1,3E1,3E0,1.1E1,1E1,3E0,3.3E1,6E0,1.3E1,1.7E1,2E0,1E0,1E1,1E0,8E0,2E0,1E0,2E0,4E0,2.9E1,3E0,3E0,9E0,4E0,1E1,7E0,1E0,1E0,9E0,1E0,5E0,3E0,1E0,1E0,2E0,2E0,2.8E1,1E0,2E0,1E0,7E0,2E0,1E0,3E0,2E0,8E0,5E0,2E0],"tree_param":{"num_deleted":"0","num_feature":"10","num_nodes":"57","size_leaf_vector":"1"}},{"base_weights":[-5.5347773E3,4.9250895E4,-1.2405011E4,-2.2823883E4,9.316203E4,5.8558315E3,-7.023329E4,-1.33669E4,1.3887533E5,-5.923693E4,4.2642105E4,-1.0537289E5,1.2819782E4,5.100599E4,-7.1988657E3,-1.120977E5,4.0674047E4,1.6428428E5,1.8501633E4,-4.982749E4,-1.9241217E5,1.03573016E5,-3.4159305E4,-7.0905316E2,-3.9056938E4,2.7159781E4,-2.1780324E4,-1.6390533E4,6.569856E4,3.1512729E4,-4.41662E3,-2.0765695E4,1.7182594E4,-1.4804806E4,-6.123791E4,4.0052908E3,3.8759016E4,1.1587988E4,-1.9457717E4],"categories":[],"categories_nodes":[],"categories_segments":[],"categories_sizes":[],"default_left":[0,0,0,0,0,0,0,0,0,0,0,0,0,0,0,0,0,0,0,0,0,0,0,0,0,0,0,0,0,0,0,0,0,0,0,0,0,0,0],"id":3,"left_children":[1,-1,3,5,7,9,11,-1,13,15,17,19,21,-1,-1,23,25,27,29,31,33,35,37,-1,-1,-1,-1,-1,-1,-1,-1,-1,-1,-1,-1,-1,-1,-1,-1],"loss_changes":[1.1979334E11,0E0,1.0991548E11,1.227832E11,6.284782E10,1.3901364E11,1.0057821E11,0E0,3.958785E10,1.1546826E11,1.0561097E11,1.0644375E11,5.043653E10,0E0,0E0,2.7486781E10,5.1754635E10,8.382849E10,9.3553E10,3.719467E10,5.009277E9,7.522386E9,2.0381364E10,0E0,0E0,0E0,0E0,0E0,0E0,0E0,0E0,0E0,0E0,0E0,0E0,0E0,0E0,0E0,0E0],"parents":[2147483647,0,0,2,2,3,3,4,4,5,5,6,6,8,8,9,9,10,10,11,11,12,12,15,15,16,16,17,17,18,18,19,19,20,20,21,21,22,22],"right_children":[2,-1,4,6,8,10,12,-1,14,16,18,20,22,-1,-1,24,26,28,30,32,34,36,38,-1,-1,-1,-1,-1,-1,-1,-1,-1,-1,-1,-1,-1,-1,-1,-1],"split_conditions":[3.63776E-2,4.9250895E4,9.082588E-1,5.8457655E-1,1.887578E-1,3.3309284E-1,8.610143E-1,-1.33669E4,9.498793E-1,5.8390105E-1,9.8752655E-2,7.728242E-1,4.6107978E-1,5.100599E4,-7.1988657E3,2.8418114E-2,2.4066746E-1,1.990914E-1,2.6172653E-1,7.685007E-1,1.4496814E-1,7.573293E-1,1.7222042E-1,-7.0905316E2,-3.9056938E4,2.7159781E4,-2.1780324E4,-1.6390533E4,6.569856E4,3.1512729E4,-4.41662E3,-2.0765695E4,1.7182594E4,-1.4804806E4,-6.123791E4,4.0052908E3,3.8759016E4,1.1587988E4,-1.9457717E4],"split_indices":[8,0,5,1,4,5,1,0,1,4,7,1,9,0,0,5,5,0,2,1,4,0,0,0,0,0,0,0,0,0,0,0,0,0,0,0,0,0,0],"split_type":[0,0,0,0,0,0,0,0,0,0,0,0,0,0,0,0,0,0,0,0,0,0,0,0,0,0,0,0,0,0,0,0,0,0,0,0,0,0,0],"sum_hessian":[1E2,3E0,9.7E1,8.9E1,8E0,5.6E1,3.3E1,2E0,6E0,2E1,3.6E1,2.3E1,1E1,5E0,1E0,1.3E1,7E0,5E0,3.1E1,1.5E1,8E0,3E0,7E0,2E0,1.1E1,5E0,2E0,1E0,4E0,8E0,2.3E1,1.3E1,2E0,1E0,7E0,1E0,2E0,2E0,5E0],"tree_param":{"num_deleted":"0","num_feature":"10","num_nodes":"39","size_leaf_vector":"1"}},{"base_weights":[-3.1121926E3,3.8169445E4,-8.400586E3,-3.5387926E4,-2.4836025E3,-8.521361E3,8.749043E4,-1.3989558E4,6.945361E4,4.7672926E4,1.2053328E4,-7.9211963E3,-4.0012945E4,4.2403684E4,-1.486608E4,1.0337119E4,-6.900271E3,-1.2707258E4,2.4625647E3,-1.7765625E1,-3.0873564E3],"categories":[],"categories_nodes":[],"categories_segments":[],"categories_sizes":[],"default_left":[0,0,0,0,0,0,0,0,0,0,0,0,0,0,0,0,0,0,0,0,0],"id":4,"left_children":[1,-1,3,-1,5,7,9,11,13,-1,15,17,-1,-1,-1,-1,19,-1,-1,-1,-1],"loss_changes":[7.068898E10,0E0,6.323649E10,0E0,5.1810243E10,3.891966E10,3.0410605E10,5.980008E10,5.833819E10,0E0,1.9362886E9,4.533908E10,0E0,0E0,0E0,0E0,6.898288E7,0E0,0E0,0E0,0E0],"parents":[2147483647,0,0,2,2,4,4,5,5,6,6,7,7,8,8,10,10,11,11,16,16],"right_children":[2,-1,4,-1,6,8,10,12,14,-1,16,18,-1,-1,-1,-1,20,-1,-1,-1,-1],"split_conditions":[3.63776E-2,3.8169445E4,1.9400097E-2,-3.5387926E4,9.384911E-1,9.112237E-1,6.134839E-2,9.643975E-1,5.1590306E-1,4.7672926E4,5.1300164E-2,3.4874597E-1,-4.0012945E4,4.2403684E4,-1.486608E4,1.0337119E4,1.7222042E-1,-1.2707258E4,2.4625647E3,-1.7765625E1,-3.0873564E3],"split_indices":[8,0,9,0,2,0,9,9,2,0,0,4,0,0,0,0,0,0,0,0,0],"split_type":[0,0,0,0,0,0,0,0,0,0,0,0,0,0,0,0,0,0,0,0,0],"sum_hessian":[1E2,3E0,9.7E1,4E0,9.3E1,8.8E1,5E0,8.3E1,5E0,2E0,3E0,8E1,3E0,3E0,2E0,1E0,2E0,2.5E1,5.5E1,1E0,1E0],"tree_param":{"num_deleted":"0","num_feature":"10","num_nodes":"21","size_leaf_vector":"1"}},{"base_weights":[-1.8323344E3,-8.1718384E3,6.3879465E4,-2.3582002E3,-3.300607E4,-8.152069E3,9.3776555E4,2.9581322E4,-7.0267144E3,1.16615336E5,-6.488419E3,-7.904628E4,3.5535245E2,8.786551E3,3.8466902E4,-9.808798E4,8.1368345E3,-2.9205818E4,1.9050064E4,-7.0338564E3,-3.1986174E4,-1.8946021E4,6.7969463E3,1.5598515E4,-6.1358228E3],"categories":[],"categories_nodes":[],"categories_segments":[],"categories_sizes":[],"default_left":[0,0,0,0,0,0,0,0,0,0,0,0,0,0,0,0,0,0,0,0,0,0,0,0,0],"id":5,"left_children":[1,3,5,7,-1,-1,9,-1,11,13,-1,15,17,-1,-1,19,-1,21,23,-1,-1,-1,-1,-1,-1],"loss_changes":[4.2596614E10,5.4806753E10,2.7048223E10,4.26426E10,0E0,0E0,2.0972069E10,0E0,4.575027E10,2.3265034E9,0E0,1.8833527E10,4.4214743E10,0E0,0E0,1.9583713E9,0E0,5.6009433E10,6.483298E10,0E0,0E0,0E0,0E0,0E0,0E0],"parents":[2147483647,0,0,1,1,2,2,3,3,6,6,8,8,9,9,11,11,12,12,15,15,17,17,18,18],"right_children":[2,4,6,8,-1,-1,10,-1,12,14,-1,16,18,-1,-1,20,-1,22,24,-1,-1,-1,-1,-1,-1],"split_conditions":[9.082588E-1,8.525955E-1,1.887578E-1,3.63776E-2,-3.300607E4,-8.152069E3,9.498793E-1,2.9581322E4,1.4006373E-1,5.1300164E-2,-6.488419E3,6.86503E-1,3.347776E-1,8.786551E3,3.8466902E4,2.2251983E-1,8.1368345E3,5.8390105E-1,4.4546172E-1,-7.0338564E3,-3.1986174E4,-1.8946021E4,6.7969463E3,1.5598515E4,-6.1358228E3],"split_indices":[5,5,4,8,0,0,1,0,6,0,0,3,5,0,0,1,0,4,1,0,0,0,0,0,0],"split_type":[0,0,0,0,0,0,0,0,0,0,0,0,0,0,0,0,0,0,0,0,0,0,0,0,0],"sum_hessian":[1E2,9.2E1,8E0,8.8E1,4E0,2E0,6E0,3E0,8.5E1,5E0,1E0,7E0,7.8E1,1E0,4E0,6E0,1E0,3E1,4.8E1,1E0,5E0,1.8E1,1.2E1,2.6E1,2.2E1],"tree_param":{"num_deleted":"0","num_feature":"10","num_nodes":"25","size_leaf_vector":"1"}},{"base_weights":[-1.3260106E3,-3.3471605E4,2.0281713E3,-4.6019188E4,8.557036E3,1.101302E4,-8.8329766E4,1.338368E4,-5.96377E4,1.792503E4,-1.7292227E4,-4.8793643E3,-2.9288963E4,5.0836723E4,-1.2197568E2,-3.242744E4,-8.387953E3,8.5606E4,-8.897348E3,-1.9365951E4,5.641483E4,-5.678836E3,1.4356979E3,1.6494295E4,5.3871227E4,2.064582E4,-1.2280042E4,2.2925527E4,-8.290046E3,-3.1655454E3,2.9294998E4,8.547469E2,-2.0868282E2],"categories":[],"categories_nodes":[],"categories_segments":[],"categories_sizes":[],"default_left":[0,0,0,0,0,0,0,0,0,0,0,0,0,0,0,0,0,0,0,0,0,0,0,0,0,0,0,0,0,0,0,0,0],"id":6,"left_children":[1,-1,3,5,7,9,11,13,15,-1,-1,-1,-1,17,19,-1,21,23,25,27,29,-1,31,-1,-1,-1,-1,-1,-1,-1,-1,-1,-1],"loss_changes":[3.7574582E10,0E0,3.1449561E10,2.9929564E10,2.976352E10,2.3519945E10,3.1035965E9,4.1989915E10,1.3992794E10,0E0,0E0,0E0,0E0,4.6453694E10,6.8548088E10,0E0,4.4140102E8,3.0414438E10,2.5224708E10,3.9331037E10,4.521248E10,0E0,1.1019442E7,0E0,0E0,0E0,0E0,0E0,0E0,0E0,0E0,0E0,0E0],"parents":[2147483647,0,0,2,2,3,3,4,4,5,5,6,6,7,7,8,8,13,13,14,14,16,16,17,17,18,18,19,19,20,20,22,22],"right_children":[2,-1,4,6,8,10,12,14,16,-1,-1,-1,-1,18,20,-1,22,24,26,28,30,-1,32,-1,-1,-1,-1,-1,-1,-1,-1,-1,-1],"split_conditions":[1.6046433E-2,-3.3471605E4,1.000627E-1,3.0620715E-1,9.4510514E-1,5.750968E-2,8.206174E-2,3.023234E-1,4.9419612E-1,1.792503E4,-1.7292227E4,-4.8793643E3,-2.9288963E4,6.104556E-1,7.4588513E-1,-3.242744E4,2.0665668E-1,2.3299967E-1,3.4774917E-1,3.63776E-2,2.4572285E-1,-5.678836E3,7.402178E-1,1.6494295E4,5.3871227E4,2.064582E4,-1.2280042E4,2.2925527E4,-8.290046E3,-3.1655454E3,2.9294998E4,8.547469E2,-2.0868282E2],"split_indices":[1,0,0,6,7,0,4,1,4,0,0,0,0,0,5,0,0,1,5,8,3,0,0,0,0,0,0,0,0,0,0,0,0],"split_type":[0,0,0,0,0,0,0,0,0,0,0,0,0,0,0,0,0,0,0,0,0,0,0,0,0,0,0,0,0,0,0,0,0],"sum_hessian":[1E2,2E0,9.8E1,1.1E1,8.7E1,5E0,6E0,8.2E1,5E0,3E0,2E0,1E0,5E0,2.1E1,6.1E1,2E0,3E0,1.3E1,8E0,4.6E1,1.5E1,1E0,2E0,1.1E1,2E0,2E0,6E0,3E0,4.3E1,6E0,9E0,1E0,1E0],"tree_param":{"num_deleted":"0","num_feature":"10","num_nodes":"33","size_leaf_vector":"1"}},{"base_weights":[-7.794053E2,5.2904758E4,-6.6061685E3,1.1406274E5,-3.1065777E4,-1.4238918E4,4.087276E4,2.0311079E3,4.025015E4,3.1079016E3,-1.3203618E4,-7.024326E3,-3.631588E4,7.116246E4,-2.1823244E4,-5.3527418E4,8.3261847E2,9.009369E4,3.2687708E3,5.4326353E3,-1.2541413E4,-7.4982234E4,2.7640684E3,-2.6777283E4,5.0425884E3,3.104552E4,1.1323051E4,2.1487783E3,-6.778313E2,3.0701157E3,-6.254297E2,-2.4781408E4,-3.2437642E3,-1.0243065E4,7.9343374E3,4.3473506E3,-1.2539931E4],"categories":[],"categories_nodes":[],"categories_segments":[],"categories_sizes":[],"default_left":[0,0,0,0,0,0,0,0,0,0,0,0,0,0,0,0,0,0,0,0,0,0,0,0,0,0,0,0,0,0,0,0,0,0,0,0,0],"id":7,"left_children":[1,3,5,7,9,11,13,-1,-1,-1,-1,15,-1,17,19,21,23,25,27,29,-1,31,33,-1,35,-1,-1,-1,-1,-1,-1,-1,-1,-1,-1,-1,-1],"loss_changes":[3.1942795E10,5.4898135E10,3.3922302E10,1.2033942E10,3.1374781E9,6.079924E10,2.6240557E10,0E0,0E0,0E0,0E0,2.7812856E10,0E0,1.1273302E10,2.950172E9,1.3492218E10,2.5482381E10,1.0014024E9,8.076102E7,1.2960991E8,0E0,3.0198743E9,4.399461E9,0E0,2.8931727E10,0E0,0E0,0E0,0E0,0E0,0E0,0E0,0E0,0E0,0E0,0E0,0E0],"parents":[2147483647,0,0,1,1,2,2,3,3,4,4,5,5,6,6,11,11,13,13,14,14,15,15,16,16,17,17,18,18,19,19,21,21,22,22,24,24],"right_children":[2,4,6,8,10,12,14,-1,-1,-1,-1,16,-1,18,20,22,24,26,28,30,-1,32,34,-1,36,-1,-1,-1,-1,-1,-1,-1,-1,-1,-1,-1,-1],"split_conditions":[9.8752655E-2,7.81619E-1,8.610143E-1,2.8418114E-2,1.14926614E-1,8.188662E-1,9.498793E-1,2.0311079E3,4.025015E4,3.1079016E3,-1.3203618E4,1.7681286E-1,-3.631588E4,4.7089186E-1,5.565532E-1,6.6974056E-1,1.6046433E-2,4.7215027E-1,1.7222042E-1,1.857093E-1,-1.2541413E4,6.2869936E-1,9.005639E-2,-2.6777283E4,8.4260917E-1,3.104552E4,1.1323051E4,2.1487783E3,-6.778313E2,3.0701157E3,-6.254297E2,-2.4781408E4,-3.2437642E3,-1.0243065E4,7.9343374E3,4.3473506E3,-1.2539931E4],"split_indices":[7,3,1,5,0,1,1,0,0,0,0,6,0,3,0,8,1,7,0,0,0,4,0,0,6,0,0,0,0,0,0,0,0,0,0,0,0],"split_type":[0,0,0,0,0,0,0,0,0,0,0,0,0,0,0,0,0,0,0,0,0,0,0,0,0,0,0,0,0,0,0,0,0,0,0,0,0],"sum_hessian":[1E2,9E0,9.1E1,5E0,4E0,7.9E1,1.2E1,1E0,4E0,1E0,3E0,7.5E1,4E0,8E0,4E0,1E1,6.5E1,6E0,2E0,2E0,2E0,7E0,3E0,2E0,6.3E1,4E0,2E0,1E0,1E0,1E0,1E0,6E0,1E0,1E0,2E0,5.3E1,1E1],"tree_param":{"num_deleted":"0","num_feature":"10","num_nodes":"37","size_leaf_vector":"1"}},{"base_weights":[-8.989647E2,4.0251895E4,-5.362113E3,8.689081E4,-2.3765184E4,-1.1237492E4,3.120654E4,1.7264438E3,3.0590115E4,2.6417158E3,-1.0232803E4,-5.776293E3,-2.7600066E4,5.095604E4,-2.5968852E4,4.468618E4,-1.2370204E4,2.528711E4,2.4628424E4,-5.316141E2,-1.0033131E4,9.738519E4,-1.3660163E4,-1.7497006E4,5.5726887E4,6.4331797E3,1.0999969E4,9.295481E3,4.603714E4,-9.058877E3,5.816679E3,3.7307543E4,-9.444101E3,2.9573752E3,-5.761547E2],"categories":[],"categories_nodes":[],"categories_segments":[],"categories_sizes":[],"default_left":[0,0,0,0,0,0,0,0,0,0,0,0,0,0,0,0,0,0,0,0,0,0,0,0,0,0,0,0,0,0,0,0,0,0,0],"id":8,"left_children":[1,3,5,7,9,11,13,-1,-1,-1,-1,15,-1,17,19,21,23,-1,25,-1,-1,27,-1,29,31,33,-1,-1,-1,-1,-1,-1,-1,-1,-1],"loss_changes":[1.8765738E10,3.1921852E10,2.0117318E10,6.752551E9,1.9849492E9,3.4753487E10,1.6002682E10,0E0,0E0,0E0,0E0,2.5841404E10,0E0,6.700194E9,6.6421274E8,4.722489E10,2.471523E10,0E0,1.2973757E9,0E0,0E0,1.758428E10,0E0,3.0564588E10,3.3840695E10,1.3336915E8,0E0,0E0,0E0,0E0,0E0,0E0,0E0,0E0,0E0],"parents":[2147483647,0,0,1,1,2,2,3,3,4,4,5,5,6,6,11,11,13,13,14,14,15,15,16,16,18,18,21,21,23,23,24,24,25,25],"right_children":[2,4,6,8,10,12,14,-1,-1,-1,-1,16,-1,18,20,22,24,-1,26,-1,-1,28,-1,30,32,34,-1,-1,-1,-1,-1,-1,-1,-1,-1],"split_conditions":[9.8752655E-2,7.81619E-1,8.610143E-1,2.8418114E-2,1.14926614E-1,8.188662E-1,9.631299E-1,1.7264438E3,3.0590115E4,2.6417158E3,-1.0232803E4,1.323403E-1,-2.7600066E4,3.8162327E-1,5.565532E-1,4.4289726E-1,9.6239877E-1,2.528711E4,5.8571076E-1,-5.316141E2,-1.0033131E4,4.7182557E-1,-1.3660163E4,6.86503E-1,6.075228E-1,1.857093E-1,1.0999969E4,9.295481E3,4.603714E4,-9.058877E3,5.816679E3,3.7307543E4,-9.444101E3,2.9573752E3,-5.761547E2],"split_indices":[7,3,1,5,0,1,1,0,0,0,0,8,0,7,0,1,8,0,4,0,0,0,0,3,3,0,0,0,0,0,0,0,0,0,0],"split_type":[0,0,0,0,0,0,0,0,0,0,0,0,0,0,0,0,0,0,0,0,0,0,0,0,0,0,0,0,0,0,0,0,0,0,0],"sum_hessian":[1E2,9E0,9.1E1,5E0,4E0,7.9E1,1.2E1,1E0,4E0,1E0,3E0,7.5E1,4E0,9E0,3E0,8E0,6.7E1,3E0,6E0,1E0,2E0,5E0,3E0,6.3E1,4E0,3E0,3E0,3E0,2E0,4.7E1,1.6E1,2E0,2E0,2E0,1E0],"tree_param":{"num_deleted":"0","num_feature":"10","num_nodes":"35","size_leaf_vector":"1"}},{"base_weights":[2.7688632E2,-1.8216041E4,2.7637354E3,-3.293459E2,5.024587E4,2.2048013E3,-1.7179598E4,2.1998912E4,-9.77599E3,-2.72615E3,3.786583E4,-3.4518168E4,6.4005557E3,7.160527E4,-2.1845938E3,-1.4183047E4,2.7356842E4,2.4887396E4,-5.8753662E1,2.5840912E4,-1.5752814E2,-3.5496025E3,3.422047E3],"categories":[],"categories_nodes":[],"categories_segments":[],"categories_sizes":[],"default_left":[0,0,0,0,0,0,0,0,0,0,0,0,0,0,0,0,0,0,0,0,0,0,0],"id":9,"left_children":[1,-1,3,5,7,9,-1,-1,-1,11,13,15,17,19,21,-1,-1,-1,-1,-1,-1,-1,-1],"loss_changes":[1.5488544E10,0E0,1.4409426E10,1.3544682E10,1.3862116E10,1.5929078E10,0E0,0E0,0E0,2.3433447E10,1.5020499E10,3.3180631E10,3.1831464E10,6.33403E9,9.2169786E8,0E0,0E0,0E0,0E0,0E0,0E0,0E0,0E0],"parents":[2147483647,0,0,2,2,3,3,4,4,5,5,9,9,10,10,11,11,12,12,13,13,14,14],"right_children":[2,-1,4,6,8,10,-1,-1,-1,12,14,16,18,20,22,-1,-1,-1,-1,-1,-1,-1,-1],"split_conditions":[2.5864422E-2,-1.8216041E4,9.112237E-1,9.643975E-1,5.1590306E-1,8.0296594E-1,-1.7179598E4,2.1998912E4,-9.77599E3,2.3707494E-1,8.8521504E-1,8.7464935E-1,3.0871522E-1,6.3226825E-1,5.116307E-1,-1.4183047E4,2.7356842E4,2.4887396E4,-5.8753662E1,2.5840912E4,-1.5752814E2,-3.5496025E3,3.422047E3],"split_indices":[1,0,0,9,2,9,0,0,0,2,9,5,2,0,1,0,0,0,0,0,0,0,0],"split_type":[0,0,0,0,0,0,0,0,0,0,0,0,0,0,0,0,0,0,0,0,0,0,0],"sum_hessian":[1E2,3E0,9.7E1,9.2E1,5E0,8.9E1,3E0,4E0,1E0,7.9E1,1E1,1.7E1,6.2E1,5E0,5E0,1.6E1,1E0,4E0,5.8E1,4E0,1E0,3E0,2E0],"tree_param":{"num_deleted":"0","num_feature":"10","num_nodes":"23","size_leaf_vector":"1"}},{"base_weights":[5.936738E2,2.083447E3,-2.2257549E4,-4.705811E4,4.088424E3,-1.5966843E4,-4.2846E3,3.4545473E4,-6.1781195E2,4.3230492E4,4.1965547E3,-1.7271496E4,7.013837E3,1.842805E4,1.2748787E4,4.7705005E3,-4.6378174E3,4.3432887E4,-2.3865162E4,-3.3795094E4,1.3157252E4,4.384547E3,7.924969E2,-1.1998359E3,2.0744635E4,2.9454636E3,-1.050563E4,-1.8841803E4,3.2751963E3,1.1796413E4,1.3094778E2],"categories":[],"categories_nodes":[],"categories_segments":[],"categories_sizes":[],"default_left":[0,0,0,0,0,0,0,0,0,0,0,0,0,0,0,0,0,0,0,0,0,0,0,0,0,0,0,0,0,0,0],"id":10,"left_children":[1,3,-1,5,7,-1,-1,9,11,13,15,17,19,-1,21,-1,-1,23,25,27,29,-1,-1,-1,-1,-1,-1,-1,-1,-1,-1],"loss_changes":[1.1407333E10,1.0045161E10,0E0,4.8091136E7,1.3925134E10,0E0,0E0,3.2451348E9,1.092422E10,4.763439E9,1.1661302E9,1.1843674E10,1.5236319E10,0E0,5.570995E7,0E0,0E0,3.9358525E9,9.736097E9,1.1062858E10,1.7289867E10,0E0,0E0,0E0,0E0,0E0,0E0,0E0,0E0,0E0,0E0],"parents":[2147483647,0,0,1,1,3,3,4,4,7,7,8,8,9,9,10,10,11,11,12,12,14,14,17,17,18,18,19,19,20,20],"right_children":[2,4,-1,6,8,-1,-1,10,12,14,16,18,20,-1,22,-1,-1,24,26,28,30,-1,-1,-1,-1,-1,-1,-1,-1,-1,-1],"split_conditions":[9.906069E-1,2.5864422E-2,-2.2257549E4,1.6046433E-2,1.5302812E-1,-1.5966843E4,-4.2846E3,7.81619E-1,3.4874597E-1,5.380467E-1,1.7456126E-1,1.0195415E-1,1.000627E-1,1.842805E4,2.489852E-1,4.7705005E3,-4.6378174E3,4.7182557E-1,2.283713E-1,3.276871E-1,3.0308604E-1,4.384547E3,7.924969E2,-1.1998359E3,2.0744635E4,2.9454636E3,-1.050563E4,-1.8841803E4,3.2751963E3,1.1796413E4,1.3094778E2],"split_indices":[7,1,0,1,1,0,0,3,4,7,0,8,0,0,5,0,0,0,7,9,0,0,0,0,0,0,0,0,0,0,0],"split_type":[0,0,0,0,0,0,0,0,0,0,0,0,0,0,0,0,0,0,0,0,0,0,0,0,0,0,0,0,0,0,0],"sum_hessian":[1E2,9.9E1,1E0,3E0,9.6E1,2E0,1E0,1.2E1,8.4E1,9E0,3E0,2.6E1,5.8E1,5E0,4E0,2E0,1E0,2E0,2.4E1,7E0,5.1E1,3E0,1E0,1E0,1E0,6E0,1.8E1,4E0,3E0,1.6E1,3.5E1],"tree_param":{"num_deleted":"0","num_feature":"10","num_nodes":"31","size_leaf_vector":"1"}},{"base_weights":[3.1234464E2,-1.0034069E3,1.9783125E4,5.4317065E3,-1.550194E4,-1.4970193E3,3.90453E4,3.4624504E4,-2.6473354E4,-2.3210781E4,1.1113501E4,3.0980852E4,-5.9754883E3,-5.9291406E2,2.101187E4,-5.5045375E4,-1.5149478E4,3.2775571E3,-5.5324543E4,5.6045004E4,9.37438E2,-1.2825372E4,1.3408302E4,-6.1735176E3,3.8785127E3,-1.9018143E4,-7.4321954E2,-2.9691629E4,1.6099036E4,8.460017E3,-2.1057595E3,-2.5274934E4,-6.5998276E3,2.5500057E4,3.9235713E3,-4.6312466E3,6.9280776E3,7.0398687E3,7.538344E2,-1.9148812E4,-4.3735996E3,-1.7658892E3,6.2232925E3],"categories":[],"categories_nodes":[],"categories_segments":[],"categories_sizes":[],"default_left":[0,0,0,0,0,0,0,0,0,0,0,0,0,0,0,0,0,0,0,0,0,0,0,0,0,0,0,0,0,0,0,0,0,0,0,0,0,0,0,0,0,0,0],"id":11,"left_children":[1,3,-1,5,7,9,11,13,15,17,19,-1,21,23,-1,25,27,29,31,33,35,-1,37,-1,-1,-1,-1,39,41,-1,-1,-1,-1,-1,-1,-1,-1,-1,-1,-1,-1,-1,-1],"loss_changes":[8.787985E9,9.414172E9,0E0,1.6361409E10,1.796532E10,1.6413442E10,3.531417E10,7.524889E9,7.57829E9,1.8895415E10,1.7322041E10,0E0,6.2760494E9,1.3469628E9,0E0,2.9149676E9,9.566418E9,3.534013E9,7.7859185E9,7.5970253E9,1.1966279E10,0E0,5.985526E8,0E0,0E0,0E0,0E0,6.2923674E9,8.3700186E8,0E0,0E0,0E0,0E0,0E0,0E0,0E0,0E0,0E0,0E0,0E0,0E0,0E0,0E0],"parents":[2147483647,0,0,1,1,3,3,4,4,5,5,6,6,7,7,8,8,9,9,10,10,12,12,13,13,15,15,16,16,17,17,18,18,19,19,20,20,22,22,27,27,28,28],"right_children":[2,4,-1,6,8,10,12,14,16,18,20,-1,22,24,-1,26,28,30,32,34,36,-1,38,-1,-1,-1,-1,40,42,-1,-1,-1,-1,-1,-1,-1,-1,-1,-1,-1,-1,-1,-1],"split_conditions":[9.976181E-1,6.141649E-1,1.9783125E4,5.617759E-1,3.0047747E-1,3.3309284E-1,2.4219763E-1,5.451233E-1,4.1970763E-1,1.24843255E-1,1.1084786E-1,3.0980852E4,3.0949974E-1,1.2685552E-1,2.101187E4,7.904267E-1,8.2107025E-1,1.6608404E-1,3.8617927E-1,5.72125E-1,4.4134888E-1,-1.2825372E4,2.881153E-1,-6.1735176E3,3.8785127E3,-1.9018143E4,-7.4321954E2,1.9587801E-1,3.3649344E-2,8.460017E3,-2.1057595E3,-2.5274934E4,-6.5998276E3,2.5500057E4,3.9235713E3,-4.6312466E3,6.9280776E3,7.0398687E3,7.538344E2,-1.9148812E4,-4.3735996E3,-1.7658892E3,6.2232925E3],"split_indices":[8,4,0,4,5,5,2,2,5,5,9,0,7,0,0,1,4,3,2,8,3,0,0,0,0,0,0,3,0,0,0,0,0,0,0,0,0,0,0,0,0,0,0],"split_type":[0,0,0,0,0,0,0,0,0,0,0,0,0,0,0,0,0,0,0,0,0,0,0,0,0,0,0,0,0,0,0,0,0,0,0,0,0,0,0,0,0,0,0],"sum_hessian":[1E2,9.9E1,1E0,6.9E1,3E1,5.8E1,1.1E1,5E0,2.5E1,2.1E1,3.7E1,4E0,7E0,3E0,2E0,6E0,1.9E1,1.2E1,9E0,6E0,3.1E1,2E0,5E0,1E0,2E0,5E0,1E0,1.3E1,6E0,3E0,9E0,4E0,5E0,3E0,3E0,1.8E1,1.3E1,2E0,3E0,3E0,1E1,1E0,5E0],"tree_param":{"num_deleted":"0","num_feature":"10","num_nodes":"43","size_leaf_vector":"1"}},{"base_weights":[5.3372003E2,1.7540057E3,-1.8224227E4,6.3935547E2,1.6815656E4,8.912568E3,-7.646644E3,6.0816164E4,-9.51184E2,-1.0722261E4,4.4112105E4,1.8925262E4,2.9392727E4,-1.5279216E4,2.1861053E4,-1.3875514E4,1.2360513E4,3.013725E3,1.6836723E4,8.300882E3,1.16175E3,9.218413E3,-8.1396426E3,1.4986099E4,5.9897174E2,-9.456594E3,-1.2960194E3],"categories":[],"categories_nodes":[],"categories_segments":[],"categories_sizes":[],"default_left":[0,0,0,0,0,0,0,0,0,0,0,0,0,0,0,0,0,0,0,0,0,0,0,0,0,0,0],"id":12,"left_children":[1,3,-1,5,-1,7,9,11,13,15,17,19,-1,21,23,25,-1,-1,-1,-1,-1,-1,-1,-1,-1,-1,-1],"loss_changes":[7.659381E9,6.016511E9,0E0,6.8547825E9,0E0,2.5656058E10,8.432485E9,1.0598971E10,1.4388761E10,8.430706E9,6.636493E8,5.509819E8,0E0,1.5557374E10,9.387031E9,7.6203387E9,0E0,0E0,0E0,0E0,0E0,0E0,0E0,0E0,0E0,0E0,0E0],"parents":[2147483647,0,0,1,1,3,3,5,5,6,6,7,7,8,8,9,9,10,10,11,11,13,13,14,14,15,15],"right_children":[2,4,-1,6,-1,8,10,12,14,16,18,20,-1,22,24,26,-1,-1,-1,-1,-1,-1,-1,-1,-1,-1,-1],"split_conditions":[9.906069E-1,9.976181E-1,-1.8224227E4,4.4546172E-1,1.6815656E4,1.5527315E-1,9.1049623E-1,7.331602E-2,5.278076E-1,9.3875366E-1,4.5359734E-2,2.7033037E-1,2.9392727E4,2.2904338E-1,3.2343286E-1,3.849158E-1,1.2360513E4,3.013725E3,1.6836723E4,8.300882E3,1.16175E3,9.218413E3,-8.1396426E3,1.4986099E4,5.9897174E2,-9.456594E3,-1.2960194E3],"split_indices":[7,8,0,1,0,8,7,8,6,0,0,0,0,7,3,2,0,0,0,0,0,0,0,0,0,0,0],"split_type":[0,0,0,0,0,0,0,0,0,0,0,0,0,0,0,0,0,0,0,0,0,0,0,0,0,0,0],"sum_hessian":[1E2,9.9E1,1E0,9.8E1,1E0,4.9E1,4.9E1,7E0,4.2E1,4.7E1,2E0,4E0,3E0,2.6E1,1.6E1,4.5E1,2E0,1E0,1E0,2E0,2E0,5E0,2.1E1,6E0,1E1,1.5E1,3E1],"tree_param":{"num_deleted":"0","num_feature":"10","num_nodes":"27","size_leaf_vector":"1"}},{"base_weights":[1.1218048E3,2.165729E3,-1.5490595E4,-2.4466257E3,1.4113449E4,-5.5628667E3,3.3278547E4,2.5832695E4,-9.564463E3,1.5634326E4,-1.238574E4,-3.0757173E3,1.3210563E4,-6.5948037E3,5.001586E4,1.3170325E4,-2.6916041E4,4.108253E4,-6.2876704E3,-6.141854E3,-4.5959383E4,-1.6894303E4,5.0236562E3,1.23995E3,5.975277E4,6.911951E3,-3.946158E3,-2.3085752E3,-8.766346E3,1.1362562E3,1.5864886E4,-8.92874E3,4.2967817E3,-1.0023967E4,4.8123993E2,-1.8396037E4,-4.5805854E3,-7.504308E3,-9.428438E2,2.8002563E3,-1.8327704E3,2.2234814E4,1.8962626E3],"categories":[],"categories_nodes":[],"categories_segments":[],"categories_sizes":[],"default_left":[0,0,0,0,0,0,0,0,0,0,0,0,0,0,0,0,0,0,0,0,0,0,0,0,0,0,0,0,0,0,0,0,0,0,0,0,0,0,0,0,0,0,0],"id":13,"left_children":[1,3,-1,5,7,9,11,13,15,17,19,-1,-1,21,23,25,27,29,31,33,35,37,39,-1,41,-1,-1,-1,-1,-1,-1,-1,-1,-1,-1,-1,-1,-1,-1,-1,-1,-1,-1],"loss_changes":[5.674346E9,5.5452426E9,0E0,8.312087E9,8.0167194E9,1.0028195E10,3.260953E9,1.5229634E10,4.2993377E9,9.742196E9,1.0618486E10,0E0,0E0,1.16185E9,4.667345E9,1.6020969E9,4.097229E7,3.3204777E9,5.264496E9,9.559564E9,2.8351887E9,4.7969894E8,2.9696813E8,0E0,6.4386376E9,0E0,0E0,0E0,0E0,0E0,0E0,0E0,0E0,0E0,0E0,0E0,0E0,0E0,0E0,0E0,0E0,0E0,0E0],"parents":[2147483647,0,0,1,1,3,3,4,4,5,5,6,6,7,7,8,8,9,9,10,10,13,13,14,14,15,15,16,16,17,17,18,18,19,19,20,20,21,21,22,22,24,24],"right_children":[2,4,-1,6,8,10,12,14,16,18,20,-1,-1,22,24,26,28,30,32,34,36,38,40,-1,42,-1,-1,-1,-1,-1,-1,-1,-1,-1,-1,-1,-1,-1,-1,-1,-1,-1,-1],"split_conditions":[9.906069E-1,7.1516335E-1,-1.5490595E4,8.974761E-1,6.141649E-1,2.5856876E-1,2.5864422E-2,3.8684744E-1,3.5033736E-1,3.150883E-1,8.0527866E-1,-3.0757173E3,1.3210563E4,5.278076E-1,1.09178536E-1,6.667079E-1,1.4006373E-1,3.5267574E-1,5.397008E-1,3.8903567E-1,5.003533E-1,8.1922156E-1,5.9678847E-1,1.23995E3,8.188662E-1,6.911951E3,-3.946158E3,-2.3085752E3,-8.766346E3,1.1362562E3,1.5864886E4,-8.92874E3,4.2967817E3,-1.0023967E4,4.8123993E2,-1.8396037E4,-4.5805854E3,-7.504308E3,-9.428438E2,2.8002563E3,-1.8327704E3,2.2234814E4,1.8962626E3],"split_indices":[7,7,0,0,4,1,1,4,1,9,0,0,0,6,1,5,6,2,9,1,9,0,0,0,1,0,0,0,0,0,0,0,0,0,0,0,0,0,0,0,0,0,0],"split_type":[0,0,0,0,0,0,0,0,0,0,0,0,0,0,0,0,0,0,0,0,0,0,0,0,0,0,0,0,0,0,0,0,0,0,0,0,0,0,0,0,0,0,0],"sum_hessian":[1E2,9.9E1,1E0,7.2E1,2.7E1,6.7E1,5E0,1.8E1,9E0,1.6E1,5.1E1,1E0,4E0,8E0,1E1,4E0,5E0,7E0,9E0,4.4E1,7E0,4E0,4E0,2E0,8E0,3E0,1E0,1E0,4E0,2E0,5E0,4E0,5E0,9E0,3.5E1,4E0,3E0,2E0,2E0,3E0,1E0,6E0,2E0],"tree_param":{"num_deleted":"0","num_feature":"10","num_nodes":"43","size_leaf_vector":"1"}},{"base_weights":[6.295823E2,-3.1219626E2,1.4221116E4,2.981569E3,-1.2845007E4,-1.4170449E3,1.4642326E4,-3.2588514E4,1.8116515E3,4.7622607E3,-1.4676755E4,-5.790799E3,1.9001957E4,-4.582214E4,1.0992075E4,1.2560976E4,-2.7589438E3,2.3556572E4,-8.208362E3,4.484548E4,-3.353905E4,2.18993E4,-5.407135E3,-4.0664453E3,-1.6295634E4,-3.5077864E3,1.9690037E4,4.4602737E2,1.063785E4,-1.1660138E4,1.7621326E3,1.651772E3,2.0770969E4,1.2285667E3,-1.427896E4,-1.4792562E3,7.6037524E3,2.8447031E3,-4.423207E3,1.1460751E3,6.810727E3],"categories":[],"categories_nodes":[],"categories_segments":[],"categories_sizes":[],"default_left":[0,0,0,0,0,0,0,0,0,0,0,0,0,0,0,0,0,0,0,0,0,0,0,0,0,0,0,0,0,0,0,0,0,0,0,0,0,0,0,0,0],"id":14,"left_children":[1,3,-1,5,7,9,11,13,15,17,19,-1,21,23,-1,25,-1,27,29,31,33,35,-1,-1,-1,37,39,-1,-1,-1,-1,-1,-1,-1,-1,-1,-1,-1,-1,-1,-1],"loss_changes":[4.4639375E9,4.1663117E9,0E0,4.1240417E9,6.13589E9,4.904107E9,3.6225172E9,9.924263E9,1.6538063E9,1.0188091E10,2.2835868E10,0E0,2.5402332E9,1.4570271E9,0E0,8.709549E8,0E0,4.4131E9,1.102182E10,4.416464E9,8.130564E9,1.8819287E9,0E0,0E0,0E0,5.776884E8,1.5230054E8,0E0,0E0,0E0,0E0,0E0,0E0,0E0,0E0,0E0,0E0,0E0,0E0,0E0,0E0],"parents":[2147483647,0,0,1,1,3,3,4,4,5,5,6,6,7,7,8,8,9,9,10,10,12,12,13,13,15,15,17,17,18,18,19,19,20,20,21,21,25,25,26,26],"right_children":[2,4,-1,6,8,10,12,14,16,18,20,-1,22,24,-1,26,-1,28,30,32,34,36,-1,-1,-1,38,40,-1,-1,-1,-1,-1,-1,-1,-1,-1,-1,-1,-1,-1,-1],"split_conditions":[9.976181E-1,7.940546E-1,1.4221116E4,5.336673E-1,8.571247E-1,4.0375492E-1,5.038391E-2,8.1431025E-1,4.5011407E-1,3.0308604E-1,1.323403E-1,-5.790799E3,9.0346706E-1,8.122999E-1,1.0992075E4,4.5018354E-1,-2.7589438E3,1.6849197E-1,4.5062467E-1,4.7182557E-1,2.0268105E-1,4.997451E-2,-5.407135E3,-4.0664453E3,-1.6295634E4,4.9896502E-1,8.377742E-2,4.4602737E2,1.063785E4,-1.1660138E4,1.7621326E3,1.651772E3,2.0770969E4,1.2285667E3,-1.427896E4,-1.4792562E3,7.6037524E3,2.8447031E3,-4.423207E3,1.1460751E3,6.810727E3],"split_indices":[8,6,0,6,6,6,9,0,9,0,8,0,4,6,0,7,0,6,8,0,9,1,0,0,0,0,0,0,0,0,0,0,0,0,0,0,0,0,0,0,0],"split_type":[0,0,0,0,0,0,0,0,0,0,0,0,0,0,0,0,0,0,0,0,0,0,0,0,0,0,0,0,0,0,0,0,0,0,0,0,0,0,0,0,0],"sum_hessian":[1E2,9.9E1,1E0,7.9E1,2E1,5.8E1,2.1E1,8E0,1.2E1,4E1,1.8E1,2E0,1.9E1,7E0,1E0,6E0,6E0,1.6E1,2.4E1,4E0,1.4E1,1.8E1,1E0,2E0,5E0,2E0,4E0,6E0,1E1,7E0,1.7E1,2E0,2E0,4E0,1E1,2E0,1.6E1,1E0,1E0,1E0,3E0],"tree_param":{"num_deleted":"0","num_feature":"10","num_nodes":"41","size_leaf_vector":"1"}},{"base_weights":[5.7887665E2,-2.2119771E2,1.2087947E4,4.9863266E2,-1.0722661E4,-2.305521E3,1.2426938E4,9.447677E3,-7.4199844E3,2.7171691E4,1.5615248E3,2.9959035E4,-6.22383E3,-1.0783796E4,2.9720412E4,-1.1434064E3,3.8134598E4,-7.2677266E3,8.90638E3,4.1856567E3,2.0397969E4,-4.8527446E3,2.238209E3,-1.0180556E4,-2.1318823E3,9.881981E3,2.526347E3,2.959297E3,1.4941098E4,-2.5099717E3,-2.6602502E2,-4.5961642E2,5.135466E3],"categories":[],"categories_nodes":[],"categories_segments":[],"categories_sizes":[],"default_left":[0,0,0,0,0,0,0,0,0,0,0,0,0,0,0,0,0,0,0,0,0,0,0,0,0,0,0,0,0,0,0,0,0],"id":15,"left_children":[1,3,-1,5,-1,7,9,11,13,15,17,19,21,23,25,-1,27,29,31,-1,-1,-1,-1,-1,-1,-1,-1,-1,-1,-1,-1,-1,-1],"loss_changes":[3.2181248E9,2.574732E9,0E0,3.3400817E9,0E0,4.939117E9,3.0015196E9,8.222557E9,7.441697E9,2.8626586E9,8.4292397E8,5.748228E9,2.1635057E9,4.271252E9,6.547507E7,0E0,1.4880461E9,3.465117E7,6.262573E8,0E0,0E0,0E0,0E0,0E0,0E0,0E0,0E0,0E0,0E0,0E0,0E0,0E0,0E0],"parents":[2147483647,0,0,1,1,3,3,5,5,6,6,7,7,8,8,9,9,10,10,11,11,12,12,13,13,14,14,16,16,17,17,18,18],"right_children":[2,4,-1,6,-1,8,10,12,14,16,18,20,22,24,26,-1,28,30,32,-1,-1,-1,-1,-1,-1,-1,-1,-1,-1,-1,-1,-1,-1],"split_conditions":[9.976181E-1,9.906069E-1,1.2087947E4,7.843872E-1,-1.0722661E4,3.1012282E-1,2.6172653E-1,3.150883E-1,8.974761E-1,3.215129E-1,4.9333018E-1,4.316771E-1,4.5921543E-1,3.5444483E-1,9.452292E-1,-1.1434064E3,1.524652E-1,7.430556E-1,5.283579E-1,4.1856567E3,2.0397969E4,-4.8527446E3,2.238209E3,-1.0180556E4,-2.1318823E3,9.881981E3,2.526347E3,2.959297E3,1.4941098E4,-2.5099717E3,-2.6602502E2,-4.5961642E2,5.135466E3],"split_indices":[8,7,0,7,0,1,2,9,0,4,2,4,7,1,0,0,1,1,5,0,0,0,0,0,0,0,0,0,0,0,0,0,0],"split_type":[0,0,0,0,0,0,0,0,0,0,0,0,0,0,0,0,0,0,0,0,0,0,0,0,0,0,0,0,0,0,0,0,0],"sum_hessian":[1E2,9.9E1,1E0,9.8E1,1E0,8E1,1.8E1,2.4E1,5.6E1,7E0,1.1E1,1E1,1.4E1,5.2E1,4E0,2E0,5E0,5E0,6E0,8E0,2E0,8E0,6E0,6E0,4.6E1,3E0,1E0,2E0,3E0,4E0,1E0,3E0,3E0],"tree_param":{"num_deleted":"0","num_feature":"10","num_nodes":"33","size_leaf_vector":"1"}},{"base_weights":[8.219131E2,1.4514845E2,1.0274757E4,1.5062872E4,-1.4957568E3,2.6395107E4,-8.534258E3,-3.219532E2,-8.08365E3,3.6601267E3,1.0197305E4,-3.9270564E3,7.700297E2,-3.0199077E3,1.0337864E4,4.9410444E3,-8.017334E3,8.715907E3,6.1826562E3,-2.6286914E3,3.5679836E3,-6.7481875E3,3.1751318E2,5.550178E3,1.6048828E2],"categories":[],"categories_nodes":[],"categories_segments":[],"categories_sizes":[],"default_left":[0,0,0,0,0,0,0,0,0,0,0,0,0,0,0,0,0,0,0,0,0,0,0,0,0],"id":16,"left_children":[1,3,-1,5,7,9,11,13,-1,-1,-1,-1,-1,15,17,19,21,-1,23,-1,-1,-1,-1,-1,-1],"loss_changes":[2.279891E9,2.4703875E9,0E0,2.8993446E9,2.7097677E9,3.4004634E8,2.3590134E8,2.562073E9,0E0,0E0,0E0,0E0,0E0,2.8642972E9,1.2201518E9,2.7717417E9,5.8047744E9,0E0,1.1031901E9,0E0,0E0,0E0,0E0,0E0,0E0],"parents":[2147483647,0,0,1,1,3,3,4,4,5,5,6,6,7,7,13,13,14,14,15,15,16,16,18,18],"right_children":[2,4,-1,6,8,10,12,14,-1,-1,-1,-1,-1,16,18,20,22,-1,24,-1,-1,-1,-1,-1,-1],"split_conditions":[9.976181E-1,9.8752655E-2,1.0274757E4,7.219141E-1,9.643975E-1,6.9793954E-2,1.990914E-1,6.73023E-1,-8.08365E3,3.6601267E3,1.0197305E4,-3.9270564E3,7.700297E2,3.0308604E-1,1.0195415E-1,1.000627E-1,4.0967304E-1,8.715907E3,1.8906589E-1,-2.6286914E3,3.5679836E3,-6.7481875E3,3.1751318E2,5.550178E3,1.6048828E2],"split_indices":[8,7,0,8,9,7,0,9,0,0,0,0,0,0,8,0,6,0,5,0,0,0,0,0,0],"split_type":[0,0,0,0,0,0,0,0,0,0,0,0,0,0,0,0,0,0,0,0,0,0,0,0,0],"sum_hessian":[1E2,9.9E1,1E0,9E0,9E1,6E0,3E0,8.7E1,3E0,3E0,3E0,2E0,1E0,7E1,1.7E1,2.7E1,4.3E1,2E0,1.5E1,9E0,1.8E1,1.6E1,2.7E1,4E0,1.1E1],"tree_param":{"num_deleted":"0","num_feature":"10","num_nodes":"25","size_leaf_vector":"1"}},{"base_weights":[7.914437E2,1.4101506E3,-9.161888E3,-5.566419E2,1.0400908E4,7.520067E3,-4.3726855E3,2.113669E4,1.6475298E3,1.8841764E4,-4.3387783E3,-2.151831E4,-2.6684412E2,-9.0552606E2,2.8635016E4,-4.6615938E3,7.682065E3,3.8363707E4,-5.951543E2,-9.012343E3,9.598219E3,-2.8592508E4,6.8770522E3,-1.5263955E4,6.5581104E3,6.1264453E2,-1.0201313E3,2.6854534E3,1.0871668E4,-1.5780957E3,-2.5019533E2,3.8020703E2,4.4571562E3,1.4499844E3,1.294397E4,-3.7442756E3,2.7097463E3,-5.470262E3,5.1347345E2,5.467044E3,-2.4416345E3,-6.692438E2,-9.48266E3,2.6616562E3,4.330172E2,-9.425833E3,8.398578E2,5.9455293E3,-9.1560547E2,9.1006256E2,-1.1369696E3],"categories":[],"categories_nodes":[],"categories_segments":[],"categories_sizes":[],"default_left":[0,0,0,0,0,0,0,0,0,0,0,0,0,0,0,0,0,0,0,0,0,0,0,0,0,0,0,0,0,0,0,0,0,0,0,0,0,0,0,0,0,0,0,0,0,0,0,0,0,0,0],"id":17,"left_children":[1,3,-1,5,7,9,11,13,15,17,19,21,23,25,27,29,31,33,35,37,39,41,43,45,47,-1,-1,-1,-1,-1,-1,49,-1,-1,-1,-1,-1,-1,-1,-1,-1,-1,-1,-1,-1,-1,-1,-1,-1,-1,-1],"loss_changes":[2.0009252E9,1.774085E9,0E0,2.591032E9,1.656715E9,3.7068314E9,4.0068992E9,1.348168E9,4.546096E8,5.335081E9,9.983987E8,2.4062505E9,4.910769E9,2.9006758E7,5.736325E8,9.36308E6,3.0870157E8,9.1405926E8,1.02818874E9,1.1190492E9,7.60262E8,6.4513434E8,1.971664E7,4.465324E9,4.2657874E9,0E0,0E0,0E0,0E0,0E0,0E0,5.5755556E7,0E0,0E0,0E0,0E0,0E0,0E0,0E0,0E0,0E0,0E0,0E0,0E0,0E0,0E0,0E0,0E0,0E0,0E0,0E0],"parents":[2147483647,0,0,1,1,3,3,4,4,5,5,6,6,7,7,8,8,9,9,10,10,11,11,12,12,13,13,14,14,15,15,16,16,17,17,18,18,19,19,20,20,21,21,22,22,23,23,24,24,31,31],"right_children":[2,4,-1,6,8,10,12,14,16,18,20,22,24,26,28,30,32,34,36,38,40,42,44,46,48,-1,-1,-1,-1,-1,-1,50,-1,-1,-1,-1,-1,-1,-1,-1,-1,-1,-1,-1,-1,-1,-1,-1,-1,-1,-1],"split_conditions":[9.906069E-1,8.181884E-1,-9.161888E3,2.3362328E-1,2.6172653E-1,3.897185E-1,3.3403847E-1,3.215129E-1,4.9333018E-1,4.6132794E-1,7.9266727E-1,6.978512E-1,3.8617927E-1,8.3002543E-1,1.524652E-1,7.430556E-1,5.283579E-1,1.6918202E-1,5.89558E-1,3.3051246E-1,4.3986073E-1,3.3649344E-2,3.7020332E-1,3.276871E-1,3.5370177E-1,6.1264453E2,-1.0201313E3,2.6854534E3,1.0871668E4,-1.5780957E3,-2.5019533E2,7.402178E-1,4.4571562E3,1.4499844E3,1.294397E4,-3.7442756E3,2.7097463E3,-5.470262E3,5.1347345E2,5.467044E3,-2.4416345E3,-6.692438E2,-9.48266E3,2.6616562E3,4.330172E2,-9.425833E3,8.398578E2,5.9455293E3,-9.1560547E2,9.1006256E2,-1.1369696E3],"split_indices":[7,7,0,7,2,6,7,4,2,9,2,8,2,0,1,1,5,1,8,0,0,0,0,9,9,0,0,0,0,0,0,0,0,0,0,0,0,0,0,0,0,0,0,0,0,0,0,0,0,0,0],"split_type":[0,0,0,0,0,0,0,0,0,0,0,0,0,0,0,0,0,0,0,0,0,0,0,0,0,0,0,0,0,0,0,0,0,0,0,0,0,0,0,0,0,0,0,0,0,0,0,0,0,0,0],"sum_hessian":[1E2,9.9E1,1E0,8.2E1,1.7E1,2.6E1,5.6E1,7E0,1E1,1.3E1,1.3E1,1E1,4.6E1,2E0,5E0,5E0,5E0,6E0,7E0,1E1,3E0,8E0,2E0,1.4E1,3.2E1,1E0,1E0,2E0,3E0,4E0,1E0,3E0,2E0,1E0,5E0,3E0,4E0,5E0,5E0,2E0,1E0,1E0,7E0,1E0,1E0,7E0,7E0,1.3E1,1.9E1,2E0,1E0],"tree_param":{"num_deleted":"0","num_feature":"10","num_nodes":"51","size_leaf_vector":"1"}},{"base_weights":[6.253422E2,1.1507694E3,-7.7876064E3,6.343315E2,7.841719E3,-1.095153E3,7.9740107E3,6.4599624E3,-4.389587E3,1.6439379E4,1.665931E3,3.0167656E4,5.0765625E2,-7.7470636E2,-1.9435932E4,-7.6969794E2,2.2304021E4,-3.5678333E3,5.9140244E3,1.0429532E3,1.4040876E4,2.6472114E3,-2.3564631E3,-3.4874456E3,1.1147317E3,-8.668737E3,-6.9148315E2,5.207485E2,-8.6711255E2,2.1483625E3,8.425538E3,-3.6198126E2,-1.3340391E3,6.2825394E1,3.0420376E3],"categories":[],"categories_nodes":[],"categories_segments":[],"categories_sizes":[],"default_left":[0,0,0,0,0,0,0,0,0,0,0,0,0,0,0,0,0,0,0,0,0,0,0,0,0,0,0,0,0,0,0,0,0,0,0],"id":18,"left_children":[1,3,-1,5,-1,7,9,11,13,15,17,19,21,23,25,27,29,31,33,-1,-1,-1,-1,-1,-1,-1,-1,-1,-1,-1,-1,-1,-1,-1,-1],"loss_changes":[1.4406376E9,1.2739094E9,0E0,1.265425E9,0E0,2.0444326E9,9.8721715E8,3.5125714E9,3.085215E9,8.245678E8,2.879025E8,2.0573599E9,1.5297782E9,2.3331384E9,1.7160202E9,2.095743E7,3.2413005E8,7.08708E6,1.6663416E8,0E0,0E0,0E0,0E0,0E0,0E0,0E0,0E0,0E0,0E0,0E0,0E0,0E0,0E0,0E0,0E0],"parents":[2147483647,0,0,1,1,3,3,5,5,6,6,7,7,8,8,9,9,10,10,11,11,12,12,13,13,14,14,15,15,16,16,17,17,18,18],"right_children":[2,4,-1,6,-1,8,10,12,14,16,18,20,22,24,26,28,30,32,34,-1,-1,-1,-1,-1,-1,-1,-1,-1,-1,-1,-1,-1,-1,-1,-1],"split_conditions":[9.906069E-1,9.976181E-1,-7.7876064E3,7.843872E-1,7.841719E3,3.1012282E-1,2.6172653E-1,2.1041383E-1,5.964159E-1,3.215129E-1,4.9333018E-1,2.1482825E-1,3.960422E-1,2.2706024E-1,6.29478E-1,8.3002543E-1,1.524652E-1,5.8571076E-1,5.283579E-1,1.0429532E3,1.4040876E4,2.6472114E3,-2.3564631E3,-3.4874456E3,1.1147317E3,-8.668737E3,-6.9148315E2,5.207485E2,-8.6711255E2,2.1483625E3,8.425538E3,-3.6198126E2,-1.3340391E3,6.2825394E1,3.0420376E3],"split_indices":[7,8,0,7,0,1,2,8,7,4,2,1,4,3,9,0,1,4,5,0,0,0,0,0,0,0,0,0,0,0,0,0,0,0,0],"split_type":[0,0,0,0,0,0,0,0,0,0,0,0,0,0,0,0,0,0,0,0,0,0,0,0,0,0,0,0,0,0,0,0,0,0,0],"sum_hessian":[1E2,9.9E1,1E0,9.8E1,1E0,8E1,1.8E1,2.4E1,5.6E1,7E0,1.1E1,4E0,2E1,4.6E1,1E1,2E0,5E0,5E0,6E0,2E0,2E0,1E1,1E1,1.3E1,3.3E1,6E0,4E0,1E0,1E0,2E0,3E0,2E0,3E0,3E0,3E0],"tree_param":{"num_deleted":"0","num_feature":"10","num_nodes":"35","size_leaf_vector":"1"}},{"base_weights":[5.895396E2,1.0367328E3,-6.6194673E3,5.9835254E2,6.6654565E3,2.219398E3,-5.915746E3,1.152549E4,4.0765375E2,-1.7167877E4,1.4636995E3,-1.0882362E4,2.2693688E4,-1.0630314E4,1.4714808E3,-8.07038E3,8.021526E3,-2.1811562E3,4.3020815E3,-9.0506256E2,-4.5361187E3,1.0371219E4,1.8833739E3,3.5488157E3,1.9770674E1,-5.501977E2,4.159885E3,1.4729259E3,-2.0803494E3],"categories":[],"categories_nodes":[],"categories_segments":[],"categories_sizes":[],"default_left":[0,0,0,0,0,0,0,0,0,0,0,0,0,0,0,0,0,0,0,0,0,0,0,0,0,0,0,0,0],"id":19,"left_children":[1,3,-1,5,-1,7,9,11,13,15,17,19,21,-1,23,-1,25,27,-1,-1,-1,-1,-1,-1,-1,-1,-1,-1,-1],"loss_changes":[1.046097E9,9.1525875E8,0E0,1.0585347E9,0E0,1.3441221E9,1.6858184E9,3.50028E9,2.6449623E9,2.1772155E9,6.4141056E8,1.2105459E8,1.5377055E9,0E0,9.746632E8,0E0,1.9823992E8,4.0480733E8,0E0,0E0,0E0,0E0,0E0,0E0,0E0,0E0,0E0,0E0,0E0],"parents":[2147483647,0,0,1,1,3,3,5,5,6,6,7,7,8,8,9,9,10,10,11,11,12,12,14,14,16,16,17,17],"right_children":[2,4,-1,6,-1,8,10,12,14,16,18,20,22,-1,24,-1,26,28,-1,-1,-1,-1,-1,-1,-1,-1,-1,-1,-1],"split_conditions":[9.906069E-1,9.976181E-1,-6.6194673E3,7.940546E-1,6.6654565E3,1.5527315E-1,8.571247E-1,3.5309333E-1,1.6011147E-1,5.0792974E-1,8.701654E-1,2.049859E-1,4.4132483E-1,-1.0630314E4,1.7044385E-1,-8.07038E3,6.1812796E-2,4.3136752E-1,4.3020815E3,-9.0506256E2,-4.5361187E3,1.0371219E4,1.8833739E3,3.5488157E3,1.9770674E1,-5.501977E2,4.159885E3,1.4729259E3,-2.0803494E3],"split_indices":[7,8,0,6,0,8,6,6,8,7,1,6,6,0,4,0,0,5,0,0,0,0,0,0,0,0,0,0,0],"split_type":[0,0,0,0,0,0,0,0,0,0,0,0,0,0,0,0,0,0,0,0,0,0,0,0,0,0,0,0,0],"sum_hessian":[1E2,9.9E1,1E0,9.8E1,1E0,7.9E1,1.9E1,1.2E1,6.7E1,7E0,1.2E1,4E0,8E0,1E0,6.6E1,5E0,2E0,1E1,2E0,2E0,2E0,4E0,4E0,7E0,5.9E1,1E0,1E0,4E0,6E0],"tree_param":{"num_deleted":"0","num_feature":"10","num_nodes":"29","size_leaf_vector":"1"}},{"base_weights":[4.030951E2,9.012102E2,-4.85072E3,1.2931646E3,-5.626547E3,3.4773745E3,-2.4018135E3,5.0504907E3,-9.604325E3,-1.0897757E4,2.1121494E3,-8.524631E3,6.849998E3,-1.3135337E4,1.7372626E3,-2.1319264E4,1.0040506E4,-7.578763E3,4.913816E3,-6.163543E3,1.6881118E3,6.0021836E3,1.0421498E3,-1.6926587E3,-4.641408E3,3.3515625E2,-7.279041E3,3.506844E2,4.669569E3,-1.6133907E2,-2.663819E3,-1.9518326E3,2.4526287E3],"categories":[],"categories_nodes":[],"categories_segments":[],"categories_sizes":[],"default_left":[0,0,0,0,0,0,0,0,0,0,0,0,0,0,0,0,0,0,0,0,0,0,0,0,0,0,0,0,0,0,0,0,0],"id":20,"left_children":[1,3,-1,5,-1,7,9,11,13,15,17,19,21,23,-1,25,27,29,31,-1,-1,-1,-1,-1,-1,-1,-1,-1,-1,-1,-1,-1,-1],"loss_changes":[8.48311E8,7.869888E8,0E0,7.9927155E8,0E0,1.3244069E9,1.4419814E9,1.4263914E9,4.565895E8,3.050763E9,7.160081E8,1.3063805E9,2.151556E9,1.7732416E7,0E0,6.2162406E8,2.2686957E8,5.017101E7,7.981378E8,0E0,0E0,0E0,0E0,0E0,0E0,0E0,0E0,0E0,0E0,0E0,0E0,0E0,0E0],"parents":[2147483647,0,0,1,1,3,3,5,5,6,6,7,7,8,8,9,9,10,10,11,11,12,12,13,13,15,15,16,16,17,17,18,18],"right_children":[2,4,-1,6,-1,8,10,12,14,16,18,20,22,24,-1,26,28,30,32,-1,-1,-1,-1,-1,-1,-1,-1,-1,-1,-1,-1,-1,-1],"split_conditions":[9.6847135E-1,9.906069E-1,-4.85072E3,6.320107E-1,-5.626547E3,8.870641E-1,2.7784178E-1,1.503647E-1,9.7049135E-1,8.610143E-1,1.7483442E-1,1.6011147E-1,2.1041383E-1,2.5736618E-1,1.7372626E3,7.033696E-1,5.565532E-1,2.9783607E-1,1.0009664E-1,-6.163543E3,1.6881118E3,6.0021836E3,1.0421498E3,-1.6926587E3,-4.641408E3,3.3515625E2,-7.279041E3,3.506844E2,4.669569E3,-1.6133907E2,-2.663819E3,-1.9518326E3,2.4526287E3],"split_indices":[9,7,0,1,0,3,3,4,3,1,6,8,8,4,0,1,0,2,9,0,0,0,0,0,0,0,0,0,0,0,0,0,0],"split_type":[0,0,0,0,0,0,0,0,0,0,0,0,0,0,0,0,0,0,0,0,0,0,0,0,0,0,0,0,0,0,0,0,0],"sum_hessian":[1E2,9.8E1,2E0,9.7E1,1E0,6.1E1,3.6E1,5.5E1,6E0,1.2E1,2.4E1,6E0,4.9E1,5E0,1E0,8E0,4E0,5E0,1.9E1,3E0,3E0,9E0,4E1,2E0,3E0,1E0,7E0,2E0,2E0,1E0,4E0,4E0,1.5E1],"tree_param":{"num_deleted":"0","num_feature":"10","num_nodes":"33","size_leaf_vector":"1"}},{"base_weights":[1.162968E2,-2.4982835E2,5.5093223E3,4.3857446E3,-1.93781E3,9.515372E2,5.791785E3,-1.2443423E4,-1.01879456E2,1.0114256E4,-5.6612285E3,-1.7647291E4,2.194797E3,-1.8467339E3,1.07663125E4,1.7106807E4,2.6014207E3,-1.071299E4,9.2095984E2,-5.8033594E2,-5.810877E3,1.4134447E3,-6.252532E3,6.8608193E3,4.0412322E3,6.7611096E2,6.076997E3,-1.3548745E3,3.3673516E3,3.4690314E2,-3.7721404E3,-7.877194E2,1.9575376E3,-2.7779102E3,1.238462E3,-5.6899E3,-2.8827423E2,3.5775E1,2.7692378E3],"categories":[],"categories_nodes":[],"categories_segments":[],"categories_sizes":[],"default_left":[0,0,0,0,0,0,0,0,0,0,0,0,0,0,0,0,0,0,0,0,0,0,0,0,0,0,0,0,0,0,0,0,0,0,0,0,0,0,0],"id":21,"left_children":[1,3,-1,5,7,9,-1,11,13,15,17,19,-1,21,23,25,27,29,31,-1,-1,33,35,-1,37,-1,-1,-1,-1,-1,-1,-1,-1,-1,-1,-1,-1,-1,-1],"loss_changes":[6.7937824E8,7.90975E8,0E0,1.3650848E9,1.4260129E9,1.45085E9,0E0,1.2601866E9,1.2335409E9,4.8083674E8,4.7538928E8,2.0609024E8,0E0,8.1320416E8,6.401272E8,1.8827277E8,4.189502E8,1.9123232E8,1.5626693E8,0E0,0E0,9.944025E8,1.5964127E9,0E0,1.4137274E8,0E0,0E0,0E0,0E0,0E0,0E0,0E0,0E0,0E0,0E0,0E0,0E0,0E0,0E0],"parents":[2147483647,0,0,1,1,3,3,4,4,5,5,7,7,8,8,9,9,10,10,11,11,13,13,14,14,15,15,16,16,17,17,18,18,21,21,22,22,24,24],"right_children":[2,4,-1,6,8,10,-1,12,14,16,18,20,-1,22,24,26,28,30,32,-1,-1,34,36,-1,38,-1,-1,-1,-1,-1,-1,-1,-1,-1,-1,-1,-1,-1,-1],"split_conditions":[9.976181E-1,2.3362328E-1,5.5093223E3,2.0917606E-1,3.3403847E-1,4.4148093E-1,5.791785E3,6.978512E-1,8.0296594E-1,3.897185E-1,6.6199267E-1,3.3649344E-2,2.194797E3,5.092984E-1,1.3844854E-1,1.14926614E-1,4.0270042E-1,5.1300164E-2,4.9568814E-1,-5.8033594E2,-5.810877E3,1.74437E-1,3.226717E-1,6.8608193E3,6.141649E-1,6.7611096E2,6.076997E3,-1.3548745E3,3.3673516E3,3.4690314E2,-3.7721404E3,-7.877194E2,1.9575376E3,-2.7779102E3,1.238462E3,-5.6899E3,-2.8827423E2,3.5775E1,2.7692378E3],"split_indices":[8,7,0,7,7,1,0,8,9,6,9,0,0,3,2,0,8,0,5,0,0,2,8,0,4,0,0,0,0,0,0,0,0,0,0,0,0,0,0],"split_type":[0,0,0,0,0,0,0,0,0,0,0,0,0,0,0,0,0,0,0,0,0,0,0,0,0,0,0,0,0,0,0,0,0,0,0,0,0,0,0],"sum_hessian":[1E2,9.9E1,1E0,2.6E1,7.3E1,2.2E1,4E0,1E1,6.3E1,9E0,1.3E1,8E0,2E0,5.5E1,8E0,4E0,5E0,7E0,6E0,1E0,7E0,3.2E1,2.3E1,2E0,6E0,1E0,3E0,3E0,2E0,1E0,6E0,4E0,2E0,6E0,2.6E1,6E0,1.7E1,4E0,2E0],"tree_param":{"num_deleted":"0","num_feature":"10","num_nodes":"39","size_leaf_vector":"1"}},{"base_weights":[2.3747795E2,5.7107526E2,-4.968338E3,-8.40562E1,8.1155938E3,4.0073176E3,-1.818517E3,-1.165086E3,1.2762602E4,1.7057588E4,1.1215397E3,-1.1265329E4,-1.2927768E2,4.974994E3,3.4141199E3,8.905833E2,8.261619E3,3.1938867E3,-7.3921562E3,2.2539167E3,-1.492688E4,1.5961665E3,-7.4898774E3,2.7424454E2,1.2621094E3,1.2189282E3,-8.1816565E2,1.708696E3,-1.6351632E3,-3.235794E3,-4.602844E2,8.8642505E2,1.278375E2,-6.4418413E3,-9.038268E2,-4.255734E2,2.436658E3,3.1938188E3,-3.1104236E3],"categories":[],"categories_nodes":[],"categories_segments":[],"categories_sizes":[],"default_left":[0,0,0,0,0,0,0,0,0,0,0,0,0,0,0,0,0,0,0,0,0,0,0,0,0,0,0,0,0,0,0,0,0,0,0,0,0,0,0],"id":22,"left_children":[1,3,-1,5,7,9,11,-1,13,15,17,19,21,-1,23,25,-1,27,29,31,33,35,37,-1,-1,-1,-1,-1,-1,-1,-1,-1,-1,-1,-1,-1,-1,-1,-1],"loss_changes":[5.7545837E8,4.9494726E8,0E0,6.672458E8,4.956486E8,1.0353542E9,1.05176666E9,0E0,1.5768966E8,8.227181E8,4.4704973E8,5.2865805E8,7.358724E8,0E0,2.100916E6,4.551349E7,0E0,4.6357133E8,8.285421E7,2.583841E6,5.592192E8,9.3621414E8,6.845667E8,0E0,0E0,0E0,0E0,0E0,0E0,0E0,0E0,0E0,0E0,0E0,0E0,0E0,0E0,0E0,0E0],"parents":[2147483647,0,0,1,1,3,3,4,4,5,5,6,6,8,8,9,9,10,10,11,11,12,12,14,14,15,15,17,17,18,18,19,19,20,20,21,21,22,22],"right_children":[2,4,-1,6,8,10,12,-1,14,16,18,20,22,-1,24,26,-1,28,30,32,34,36,38,-1,-1,-1,-1,-1,-1,-1,-1,-1,-1,-1,-1,-1,-1,-1,-1],"split_conditions":[9.906069E-1,9.112237E-1,-4.968338E3,3.1012282E-1,2.5864422E-2,2.1041383E-1,3.6492783E-1,-1.165086E3,4.5457587E-1,2.1482825E-1,5.8522844E-1,3.7063554E-2,8.0527866E-1,4.974994E3,9.3875366E-1,2.1849811E-1,8.261619E3,8.870641E-1,8.062505E-1,2.7033037E-1,3.8684043E-1,6.681598E-1,4.3675596E-1,2.7424454E2,1.2621094E3,1.2189282E3,-8.1816565E2,1.708696E3,-1.6351632E3,-3.235794E3,-4.602844E2,8.8642505E2,1.278375E2,-6.4418413E3,-9.038268E2,-4.255734E2,2.436658E3,3.1938188E3,-3.1104236E3],"split_indices":[7,0,0,1,1,8,1,0,2,1,5,8,0,0,0,0,0,3,0,0,9,5,1,0,0,0,0,0,0,0,0,0,0,0,0,0,0,0,0],"split_type":[0,0,0,0,0,0,0,0,0,0,0,0,0,0,0,0,0,0,0,0,0,0,0,0,0,0,0,0,0,0,0,0,0,0,0,0,0,0,0],"sum_hessian":[1E2,9.9E1,1E0,9.2E1,7E0,2.7E1,6.5E1,2E0,5E0,4E0,2.3E1,9E0,5.6E1,3E0,2E0,2E0,2E0,1.9E1,4E0,2E0,7E0,4.6E1,1E1,1E0,1E0,1E0,1E0,1.5E1,4E0,2E0,2E0,1E0,1E0,4E0,3E0,3.2E1,1.4E1,1E0,9E0],"tree_param":{"num_deleted":"0","num_feature":"10","num_nodes":"39","size_leaf_vector":"1"}},{"base_weights":[1.7792348E2,4.612418E2,-4.223086E3,1.751653E2,4.317422E3,-8.075405E2,4.642205E3,2.9131802E3,-2.587039E3,9.366395E3,7.844119E2,5.1538806E2,4.0081165E3,-6.7230376E3,4.9935498E2,-1.6974375E3,1.3337245E4,-2.2005754E3,3.638664E3,2.0688508E3,-1.2237378E3,-3.1363367E3,6.139811E2,5.941875E3,-2.1687924E2,5.2225784E1,-8.160727E2,1.4711843E3,4.898372E3,-9.218316E2,3.2406094E2,3.1080353E2,1.7687938E3],"categories":[],"categories_nodes":[],"categories_segments":[],"categories_sizes":[],"default_left":[0,0,0,0,0,0,0,0,0,0,0,0,0,0,0,0,0,0,0,0,0,0,0,0,0,0,0,0,0,0,0,0,0],"id":23,"left_children":[1,3,-1,5,-1,7,9,11,13,15,17,19,-1,21,23,25,27,29,31,-1,-1,-1,-1,-1,-1,-1,-1,-1,-1,-1,-1,-1,-1],"loss_changes":[4.1439827E8,3.9598835E8,0E0,4.3833757E8,0E0,5.504599E8,3.207019E8,6.6947046E8,7.182152E8,3.7410176E8,1.0172613E8,7.0241184E8,0E0,8.067528E8,7.9307046E8,6.216165E6,7.125562E7,2.0488118E7,2.9141736E7,0E0,0E0,0E0,0E0,0E0,0E0,0E0,0E0,0E0,0E0,0E0,0E0,0E0,0E0],"parents":[2147483647,0,0,1,1,3,3,5,5,6,6,7,7,8,8,9,9,10,10,11,11,13,13,14,14,15,15,16,16,17,17,18,18],"right_children":[2,4,-1,6,-1,8,10,12,14,16,18,20,-1,22,24,26,28,30,32,-1,-1,-1,-1,-1,-1,-1,-1,-1,-1,-1,-1,-1,-1],"split_conditions":[9.906069E-1,9.976181E-1,-4.223086E3,8.181884E-1,4.317422E3,2.3362328E-1,2.6172653E-1,2.0917606E-1,4.0967304E-1,3.215129E-1,4.9333018E-1,4.4148093E-1,4.0081165E3,6.73023E-1,4.4132483E-1,8.3002543E-1,1.524652E-1,7.430556E-1,5.283579E-1,2.0688508E3,-1.2237378E3,-3.1363367E3,6.139811E2,5.941875E3,-2.1687924E2,5.2225784E1,-8.160727E2,1.4711843E3,4.898372E3,-9.218316E2,3.2406094E2,3.1080353E2,1.7687938E3],"split_indices":[7,8,0,7,0,7,2,7,6,4,2,1,0,9,6,0,1,1,5,0,0,0,0,0,0,0,0,0,0,0,0,0,0],"split_type":[0,0,0,0,0,0,0,0,0,0,0,0,0,0,0,0,0,0,0,0,0,0,0,0,0,0,0,0,0,0,0,0,0],"sum_hessian":[1E2,9.9E1,1E0,9.8E1,1E0,8.1E1,1.7E1,2.6E1,5.5E1,7E0,1E1,2.2E1,4E0,2.3E1,3.2E1,2E0,5E0,5E0,5E0,9E0,1.3E1,1.6E1,7E0,1E0,3.1E1,1E0,1E0,2E0,3E0,4E0,1E0,3E0,2E0],"tree_param":{"num_deleted":"0","num_feature":"10","num_nodes":"33","size_leaf_vector":"1"}},{"base_weights":[2.7541144E2,6.190734E2,-3.3471714E3,-1.7227405E2,5.867393E3,-1.927408E3,2.9045938E3,8.0187393E3,-9.778203E2,-9.796003E3,-3.8872707E0,-5.822307E3,4.7363276E3,1.220263E4,1.3943219E3,-3.634094E2,-4.1578125E1,1.5309064E3,-1.3673899E4,7.964019E2,-3.5220503E3,-9.5456836E2,-3.1115571E3,-2.5109949E3,6.9265625E3,4.9092144E3,2.5865312E3,5.870696E2,-1.2839766E2,-4.77075E2,-4.4956724E3,2.3849766E3,-3.042301E2,-7.005774E2,4.7812503E2,-2.629605E3,-2.3132813E0,3.6134343E3,3.5359732E2,-9.241406E1,1.2563531E3],"categories":[],"categories_nodes":[],"categories_segments":[],"categories_sizes":[],"default_left":[0,0,0,0,0,0,0,0,0,0,0,0,0,0,0,0,0,0,0,0,0,0,0,0,0,0,0,0,0,0,0,0,0,0,0,0,0,0,0,0,0],"id":24,"left_children":[1,3,-1,5,7,9,11,13,15,17,19,21,23,25,27,-1,-1,-1,29,31,-1,33,-1,35,37,-1,39,-1,-1,-1,-1,-1,-1,-1,-1,-1,-1,-1,-1,-1,-1],"loss_changes":[4.0373274E8,4.12182E8,0E0,4.754258E8,1.9928432E8,8.475446E8,5.391079E8,2.60144E8,6.1609875E5,7.053238E8,4.414011E8,1.2297547E8,4.4597274E8,1.977735E8,5.963494E6,0E0,0E0,0E0,1.1881766E8,5.779264E8,0E0,1.779556E7,0E0,1.09527384E8,6.036027E8,0E0,1.5195424E7,0E0,0E0,0E0,0E0,0E0,0E0,0E0,0E0,0E0,0E0,0E0,0E0,0E0,0E0],"parents":[2147483647,0,0,1,1,3,3,4,4,5,5,6,6,7,7,8,8,9,9,10,10,11,11,12,12,13,13,14,14,18,18,19,19,21,21,23,23,24,24,26,26],"right_children":[2,4,-1,6,8,10,12,14,16,18,20,22,24,26,28,-1,-1,-1,30,32,-1,34,-1,36,38,-1,40,-1,-1,-1,-1,-1,-1,-1,-1,-1,-1,-1,-1,-1,-1],"split_conditions":[9.6847135E-1,8.0296594E-1,-3.3471714E3,6.6974056E-1,5.4059964E-1,1.8735938E-1,2.781762E-1,6.658785E-1,6.381999E-1,5.315068E-2,9.6750045E-1,5.565532E-1,1.621331E-1,8.0527866E-1,7.513035E-1,-3.634094E2,-4.1578125E1,1.5309064E3,3.1787157E-2,3.0871522E-1,-3.5220503E3,1.6513903E-1,-3.1115571E3,8.767027E-2,6.075228E-1,4.9092144E3,8.63816E-1,5.870696E2,-1.2839766E2,-4.77075E2,-4.4956724E3,2.3849766E3,-3.042301E2,-7.005774E2,4.7812503E2,-2.629605E3,-2.3132813E0,3.6134343E3,3.5359732E2,-9.241406E1,1.2563531E3],"split_indices":[9,9,0,8,6,3,4,1,0,8,3,0,2,0,2,0,0,0,3,2,0,0,0,0,3,0,0,0,0,0,0,0,0,0,0,0,0,0,0,0,0],"split_type":[0,0,0,0,0,0,0,0,0,0,0,0,0,0,0,0,0,0,0,0,0,0,0,0,0,0,0,0,0,0,0,0,0,0,0,0,0,0,0,0,0],"sum_hessian":[1E2,9.8E1,2E0,8.6E1,1.2E1,5.5E1,3.1E1,9E0,3E0,1E1,4.5E1,5E0,2.6E1,5E0,4E0,2E0,1E0,2E0,8E0,4.3E1,2E0,3E0,2E0,6E0,2E1,3E0,2E0,3E0,1E0,1E0,7E0,8E0,3.5E1,2E0,1E0,1E0,5E0,1E1,1E1,1E0,1E0],"tree_param":{"num_deleted":"0","num_feature":"10","num_nodes":"41","size_leaf_vector":"1"}},{"base_weights":[1.5217152E2,4.2572415E2,-2.6777368E3,-1.9969464E2,4.578471E3,7.7169727E3,-5.7430145E2,9.327266E3,2.2211062E3,-1.356054E3,3.9908252E3,-1.31343955E4,-1.0778216E2,3.7544688E3,-3.534375E1,-8.577422E2,3.6631472E3,-1.3508907E2,-5.775389E3,-6.4553696E3,4.7828226E2,-3.4240784E2,-1.14825005E2,1.817318E3,3.5278125E2,-1.3928673E2,-2.6276833E3,1.2293793E3,-2.400482E2,-1.0913907E2,2.1387189E2],"categories":[],"categories_nodes":[],"categories_segments":[],"categories_sizes":[],"default_left":[0,0,0,0,0,0,0,0,0,0,0,0,0,0,0,0,0,0,0,0,0,0,0,0,0,0,0,0,0,0,0],"id":25,"left_children":[1,3,-1,5,7,9,11,13,15,-1,-1,17,19,-1,-1,21,23,-1,-1,25,27,-1,-1,-1,29,-1,-1,-1,-1,-1,-1],"loss_changes":[2.5461323E8,2.5803768E8,0E0,2.6244237E8,1.248135E8,3.3354688E8,4.907846E8,1.2190406E8,4.7540304E7,0E0,0E0,2.2409328E8,3.0813526E8,0E0,0E0,1.020085E5,5.335149E7,0E0,0E0,9.253962E7,3.5497005E8,0E0,0E0,0E0,1.291584E6,0E0,0E0,0E0,0E0,0E0,0E0],"parents":[2147483647,0,0,1,1,3,3,4,4,5,5,6,6,7,7,8,8,11,11,12,12,15,15,16,16,19,19,20,20,24,24],"right_children":[2,4,-1,6,8,10,12,14,16,-1,-1,18,20,-1,-1,22,24,-1,-1,26,28,-1,-1,-1,30,-1,-1,-1,-1,-1,-1],"split_conditions":[9.6847135E-1,8.0296594E-1,-2.6777368E3,7.5580105E-2,1.3844854E-1,2.0390284E-1,8.810518E-2,6.3226825E-1,5.116307E-1,-1.356054E3,3.9908252E3,8.377742E-2,1.000627E-1,3.7544688E3,-3.534375E1,3.3649344E-2,7.344353E-1,-1.3508907E2,-5.775389E3,2.6935858E-1,2.881153E-1,-3.4240784E2,-1.14825005E2,1.817318E3,8.2915944E-1,-1.3928673E2,-2.6276833E3,1.2293793E3,-2.400482E2,-1.0913907E2,2.1387189E2],"split_indices":[9,9,0,4,2,5,4,0,1,0,0,0,0,0,0,0,1,0,0,6,0,0,0,0,1,0,0,0,0,0,0],"split_type":[0,0,0,0,0,0,0,0,0,0,0,0,0,0,0,0,0,0,0,0,0,0,0,0,0,0,0,0,0,0,0],"sum_hessian":[1E2,9.8E1,2E0,8.6E1,1.2E1,3E0,8.3E1,3E0,9E0,1E0,2E0,2E0,8.1E1,2E0,1E0,3E0,6E0,1E0,1E0,6E0,7.5E1,1E0,2E0,3E0,3E0,2E0,4E0,1.9E1,5.6E1,1E0,2E0],"tree_param":{"num_deleted":"0","num_feature":"10","num_nodes":"31","size_leaf_vector":"1"}},{"base_weights":[8.130672E1,-1.2880022E2,3.1638E3,-5.61679E2,4.9195156E3,2.5660688E3,-8.5600916E2,-2.9193645E3,8.0190366E3,-1.8629689E3,1.7330427E3,-1.1471578E3,-1.6655626E2,3.0768518E3,7.089531E2,-3.4638115E3,1.4961626E3,5.286649E3,-1.6905234E3,-1.6322833E3,2.5595512E2,5.1322407E3,-1.8562277E1,2.6449268E3,-9.024687E1,7.15344E2,-1.5134508E3],"categories":[],"categories_nodes":[],"categories_segments":[],"categories_sizes":[],"default_left":[0,0,0,0,0,0,0,0,0,0,0,0,0,0,0,0,0,0,0,0,0,0,0,0,0,0,0],"id":26,"left_children":[1,3,-1,5,7,-1,9,11,13,15,17,-1,-1,-1,-1,19,21,23,25,-1,-1,-1,-1,-1,-1,-1,-1],"loss_changes":[2.2342747E8,2.2129408E8,0E0,2.5683077E8,2.1778466E8,0E0,2.4047205E8,4.292198E6,5.1680416E7,3.600935E8,3.2525338E8,0E0,0E0,0E0,0E0,3.8872947E8,5.361643E8,2.5904477E8,2.03393E8,0E0,0E0,0E0,0E0,0E0,0E0,0E0,0E0],"parents":[2147483647,0,0,1,1,3,3,4,4,6,6,7,7,8,8,9,9,10,10,15,15,16,16,17,17,18,18],"right_children":[2,4,-1,6,8,-1,10,12,14,16,18,-1,-1,-1,-1,20,22,24,26,-1,-1,-1,-1,-1,-1,-1,-1],"split_conditions":[9.976181E-1,9.112237E-1,3.1638E3,3.0635878E-2,2.5864422E-2,2.5660688E3,6.86503E-1,9.49093E-1,4.5457587E-1,7.1516335E-1,4.0338406E-1,-1.1471578E3,-1.6655626E2,3.0768518E3,7.089531E2,7.1971947E-1,7.287661E-1,8.1165427E-1,8.89705E-1,-1.6322833E3,2.5595512E2,5.1322407E3,-1.8562277E1,2.6449268E3,-9.024687E1,7.15344E2,-1.5134508E3],"split_indices":[8,0,0,3,1,0,3,0,2,7,6,0,0,0,0,2,7,8,3,0,0,0,0,0,0,0,0],"split_type":[0,0,0,0,0,0,0,0,0,0,0,0,0,0,0,0,0,0,0,0,0,0,0,0,0,0,0],"sum_hessian":[1E2,9.9E1,1E0,9.2E1,7E0,2E0,9E1,2E0,5E0,6.5E1,2.5E1,1E0,1E0,3E0,2E0,4.4E1,2.1E1,1.2E1,1.3E1,3E1,1.4E1,1E0,2E1,7E0,5E0,6E0,7E0],"tree_param":{"num_deleted":"0","num_feature":"10","num_nodes":"27","size_leaf_vector":"1"}},{"base_weights":[1.9251822E2,3.862084E2,-2.876475E3,6.0319604E2,-6.8307915E3,3.9053906E3,5.220878E1,-3.294422E2,-2.744414E3,5.086895E3,-1.7181246E3,-6.4677373E3,7.2025183E2,1.4178265E3,6.5600557E3,-9.513962E3,5.341875E2,4.3624033E3,3.519085E2,-3.388633E2,1.0477766E3,2.3655015E3,3.8454688E2,-7.176844E2,-3.7430198E3,9.760441E2,-1.7653816E2],"categories":[],"categories_nodes":[],"categories_segments":[],"categories_sizes":[],"default_left":[0,0,0,0,0,0,0,0,0,0,0,0,0,0,0,0,0,0,0,0,0,0,0,0,0,0,0],"id":27,"left_children":[1,3,-1,5,7,9,11,-1,-1,13,-1,15,17,19,21,23,-1,-1,25,-1,-1,-1,-1,-1,-1,-1,-1],"loss_changes":[1.9504138E8,1.6072032E8,0E0,1.781039E8,2.9806192E7,1.8846434E8,3.748848E8,0E0,0E0,6.0965664E7,0E0,2.1795168E8,3.919735E8,3.0370976E7,5.283331E7,9.675155E7,0E0,0E0,2.1201277E8,0E0,0E0,0E0,0E0,0E0,0E0,0E0,0E0],"parents":[2147483647,0,0,1,1,3,3,4,4,5,5,6,6,9,9,11,11,12,12,13,13,14,14,15,15,18,18],"right_children":[2,4,-1,6,8,10,12,-1,-1,14,-1,16,18,20,22,24,-1,-1,26,-1,-1,-1,-1,-1,-1,-1,-1],"split_conditions":[9.906069E-1,9.3572795E-1,-2.876475E3,1.2400595E-1,3.3649344E-2,8.148618E-1,1.9587801E-1,-3.294422E2,-2.744414E3,4.596482E-1,-1.7181246E3,1.74437E-1,2.0371443E-1,3.1787157E-2,9.1955125E-1,4.5004907E-1,5.341875E2,4.3624033E3,3.0871522E-1,-3.388633E2,1.0477766E3,2.3655015E3,3.8454688E2,-7.176844E2,-3.7430198E3,9.760441E2,-1.7653816E2],"split_indices":[7,4,0,3,0,2,3,0,0,4,0,2,3,3,6,1,0,0,2,0,0,0,0,0,0,0,0],"split_type":[0,0,0,0,0,0,0,0,0,0,0,0,0,0,0,0,0,0,0,0,0,0,0,0,0,0,0],"sum_hessian":[1E2,9.9E1,1E0,9.7E1,2E0,1.3E1,8.4E1,1E0,1E0,1.2E1,1E0,7E0,7.7E1,4E0,8E0,5E0,2E0,1E0,7.6E1,2E0,2E0,6E0,2E0,2E0,3E0,1.8E1,5.8E1],"tree_param":{"num_deleted":"0","num_feature":"10","num_nodes":"27","size_leaf_vector":"1"}},{"base_weights":[1.0532089E2,-7.46734E1,2.7157126E3,5.8758438E3,-3.192857E2,-8.81325E2,2.9378875E3,-1.0496261E4,5.453351E0,-8.556094E1,-4.637757E3,6.234637E2,-2.6728945E3,3.8303765E3,-5.484093E2,-8.0138066E3,6.653789E2,2.3473567E3,-4.0369083E2,-3.718923E2,2.1079727E3,-3.548514E3,3.04525E2,-5.373967E2,1.3389075E3],"categories":[],"categories_nodes":[],"categories_segments":[],"categories_sizes":[],"default_left":[0,0,0,0,0,0,0,0,0,0,0,0,0,0,0,0,0,0,0,0,0,0,0,0,0],"id":28,"left_children":[1,3,-1,5,7,-1,-1,9,11,-1,-1,13,15,17,19,21,23,-1,-1,-1,-1,-1,-1,-1,-1],"loss_changes":[1.6332827E8,1.4743306E8,0E0,1.6686466E8,3.206288E8,0E0,0E0,1.4762122E8,1.5891486E8,0E0,0E0,2.9523197E8,3.2626186E8,4.446777E8,3.1240246E8,2.5309629E8,1.199509E8,0E0,0E0,0E0,0E0,0E0,0E0,0E0,0E0],"parents":[2147483647,0,0,1,1,3,3,4,4,7,7,8,8,11,11,12,12,13,13,14,14,15,15,16,16],"right_children":[2,4,-1,6,8,-1,-1,10,12,-1,-1,14,16,18,20,22,24,-1,-1,-1,-1,-1,-1,-1,-1],"split_conditions":[9.976181E-1,7.5580105E-2,2.7157126E3,2.0390284E-1,8.810518E-2,-8.81325E2,2.9378875E3,8.377742E-2,8.122999E-1,-8.556094E1,-4.637757E3,2.7497575E-1,8.571247E-1,6.658785E-1,9.082588E-1,5.768986E-1,6.6460466E-1,2.3473567E3,-4.0369083E2,-3.718923E2,2.1079727E3,-3.548514E3,3.04525E2,-5.373967E2,1.3389075E3],"split_indices":[8,4,0,5,4,0,0,0,6,0,0,8,6,1,5,8,1,0,0,0,0,0,0,0,0],"split_type":[0,0,0,0,0,0,0,0,0,0,0,0,0,0,0,0,0,0,0,0,0,0,0,0,0],"sum_hessian":[1E2,9.9E1,1E0,3E0,9.6E1,1E0,2E0,2E0,9.4E1,1E0,1E0,7.7E1,1.7E1,2E1,5.7E1,6E0,1.1E1,1.1E1,9E0,5.3E1,4E0,4E0,2E0,7E0,4E0],"tree_param":{"num_deleted":"0","num_feature":"10","num_nodes":"25","size_leaf_vector":"1"}},{"base_weights":[8.6454475E1,2.4755582E2,-2.403552E3,-2.5790897E2,2.9173652E3,-1.3302865E3,1.4722097E3,4.9847344E3,-4.527857E2,2.7917869E3,-2.3538335E3,3.484527E3,-1.8917037E3,6.879241E3,4.2316406E2,-1.3524625E3,3.5928125E2,-1.1496656E3,5.7548164E3,-5.8092354E3,-2.952525E2,-2.0191578E3,4.8982856E3,1.6837125E3,-2.9847415E3,2.7547034E2,7.719703E3,-1.9826251E2,3.0144064E2,-4.4128128E1,-4.851094E2,2.528497E3,-4.5314066E2,-8.12971E2,-4.328927E3,-1.3635151E3,8.1659174E2,-1.453579E3,4.4400003E2,-2.2379414E2,1.8483168E3,-1.6684079E2,-1.2388583E3,9.2395E2,2.780904E3],"categories":[],"categories_nodes":[],"categories_segments":[],"categories_sizes":[],"default_left":[0,0,0,0,0,0,0,0,0,0,0,0,0,0,0,0,0,0,0,0,0,0,0,0,0,0,0,0,0,0,0,0,0,0,0,0,0,0,0,0,0,0,0,0,0],"id":29,"left_children":[1,3,-1,5,7,9,11,13,15,17,19,21,23,25,27,29,-1,-1,31,33,35,37,39,-1,41,-1,43,-1,-1,-1,-1,-1,-1,-1,-1,-1,-1,-1,-1,-1,-1,-1,-1,-1,-1],"loss_changes":[1.3375262E8,1.3570189E8,0E0,1.5966238E8,1.1373456E8,2.301856E8,2.2997731E8,8.350816E7,1.2013438E7,2.379521E8,3.0415354E8,1.7328896E8,1.2338064E8,2.7981536E7,3.186122E6,1.356659E6,0E0,0E0,1.6812102E8,3.8838246E8,3.714042E8,5.661593E7,1.2576198E8,0E0,3.1066216E7,0E0,1.4601056E7,0E0,0E0,0E0,0E0,0E0,0E0,0E0,0E0,0E0,0E0,0E0,0E0,0E0,0E0,0E0,0E0,0E0,0E0],"parents":[2147483647,0,0,1,1,3,3,4,4,5,5,6,6,7,7,8,8,9,9,10,10,11,11,12,12,13,13,14,14,15,15,18,18,19,19,20,20,21,21,22,22,24,24,26,26],"right_children":[2,4,-1,6,8,10,12,14,16,18,20,22,24,26,28,30,-1,-1,32,34,36,38,40,-1,42,-1,44,-1,-1,-1,-1,-1,-1,-1,-1,-1,-1,-1,-1,-1,-1,-1,-1,-1,-1],"split_conditions":[9.687228E-1,7.562841E-1,-2.403552E3,6.498995E-1,9.1598E-1,2.283713E-1,6.8940413E-1,5.317537E-1,8.736749E-1,2.049859E-1,4.0967304E-1,1.3033211E-1,8.9774914E-2,2.2520407E-1,1.09178536E-1,2.2706024E-1,3.5928125E2,-1.1496656E3,4.3986073E-1,4.0338406E-1,5.0792974E-1,8.2851875E-1,2.537316E-1,1.6837125E3,2.6172653E-1,2.7547034E2,5.252022E-1,-1.9826251E2,3.0144064E2,-4.4128128E1,-4.851094E2,2.528497E3,-4.5314066E2,-8.12971E2,-4.328927E3,-1.3635151E3,8.1659174E2,-1.453579E3,4.4400003E2,-2.2379414E2,1.8483168E3,-1.6684079E2,-1.2388583E3,9.2395E2,2.780904E3],"split_indices":[9,9,0,8,9,7,3,8,0,6,6,2,9,1,1,3,0,0,0,6,7,0,4,0,2,0,0,0,0,0,0,0,0,0,0,0,0,0,0,0,0,0,0,0,0],"split_type":[0,0,0,0,0,0,0,0,0,0,0,0,0,0,0,0,0,0,0,0,0,0,0,0,0,0,0,0,0,0,0,0,0,0,0,0,0,0,0,0,0,0,0,0,0],"sum_hessian":[1E2,9.9E1,1E0,8.4E1,1.5E1,5.2E1,3.2E1,9E0,6E0,1E1,4.2E1,2E1,1.2E1,6E0,3E0,4E0,2E0,3E0,7E0,1.5E1,2.7E1,4E0,1.6E1,1E0,1.1E1,1E0,5E0,1E0,2E0,1E0,3E0,5E0,2E0,1.2E1,3E0,1.1E1,1.6E1,2E0,2E0,3E0,1.3E1,4E0,7E0,2E0,3E0],"tree_param":{"num_deleted":"0","num_feature":"10","num_nodes":"45","size_leaf_vector":"1"}},{"base_weights":[3.715403E1,-2.6300854E2,3.55942E3,-4.1143604E2,2.0311125E3,6.3251157E3,-7.875547E2,4.5392305E3,-6.2689417E2,2.1865361E3,3.7076486E2,-1.7967812E3,3.3601877E2,-6.271805E2,2.2338125E3,-7.7510435E3,-3.7690164E2,-7.069922E2,-1.0155938E2,-1.9521564E2,-3.2927542E3,-2.2468066E2,-2.0430188E3,-2.2148715E2,6.869597E2],"categories":[],"categories_nodes":[],"categories_segments":[],"categories_sizes":[],"default_left":[0,0,0,0,0,0,0,0,0,0,0,0,0,0,0,0,0,0,0,0,0,0,0,0,0],"id":30,"left_children":[1,3,5,7,-1,9,11,13,15,-1,-1,17,-1,-1,-1,19,21,-1,-1,-1,-1,23,-1,-1,-1],"loss_changes":[1.0771864E8,1.0091666E8,1.0116066E8,1.0204511E8,0E0,1.5505568E7,9.71338E6,9.2653384E7,1.573672E8,0E0,0E0,1.651448E6,0E0,0E0,0E0,6.154925E7,8.464496E7,0E0,0E0,0E0,0E0,1.1405071E8,0E0,0E0,0E0],"parents":[2147483647,0,0,1,1,2,2,3,3,5,5,6,6,7,7,8,8,11,11,15,15,16,16,21,21],"right_children":[2,4,6,8,-1,10,12,14,16,-1,-1,18,-1,-1,-1,20,22,-1,-1,-1,-1,24,-1,-1,-1],"split_conditions":[9.112237E-1,9.976181E-1,9.452292E-1,7.5580105E-2,2.0311125E3,4.5457587E-1,2.5864422E-2,2.0390284E-1,8.810518E-2,2.1865361E3,3.7076486E2,9.49093E-1,3.3601877E2,-6.271805E2,2.2338125E3,8.377742E-2,9.687228E-1,-7.069922E2,-1.0155938E2,-1.9521564E2,-3.2927542E3,7.562841E-1,-2.0430188E3,-2.2148715E2,6.869597E2],"split_indices":[0,8,0,4,0,2,1,5,4,0,0,0,0,0,0,0,9,0,0,0,0,9,0,0,0],"split_type":[0,0,0,0,0,0,0,0,0,0,0,0,0,0,0,0,0,0,0,0,0,0,0,0,0],"sum_hessian":[1E2,9.3E1,7E0,9.2E1,1E0,4E0,3E0,3E0,8.9E1,3E0,1E0,2E0,1E0,1E0,2E0,2E0,8.7E1,1E0,1E0,1E0,1E0,8.6E1,1E0,7.2E1,1.4E1],"tree_param":{"num_deleted":"0","num_feature":"10","num_nodes":"25","size_leaf_vector":"1"}},{"base_weights":[3.251856E1,1.6631E2,-2.0019938E3,-3.5475527E3,3.991191E2,-1.4302363E3,-2.2155E2,1.3419531E3,-7.242102E2,-2.9729014E3,2.194038E3,3.007886E3,-1.7698317E3,-4.852402E3,5.895742E2,1.8699754E2,4.1925786E3,5.706776E3,-8.323594E2,2.3639744E3,-2.7066182E3,-2.4231094E2,-1.6499403E3,-2.0922658E2,6.675844E2,9.3299176E2,-9.853281E2,2.777558E3,5.1425714E2,2.0853188E3,6.436406E2,-4.7293594E2,5.6756252E1,-2.6675977E2,9.16311E2,-2.739717E3,-6.452909E2],"categories":[],"categories_nodes":[],"categories_segments":[],"categories_sizes":[],"default_left":[0,0,0,0,0,0,0,0,0,0,0,0,0,0,0,0,0,0,0,0,0,0,0,0,0,0,0,0,0,0,0,0,0,0,0,0,0],"id":31,"left_children":[1,3,-1,5,7,-1,-1,9,11,13,15,17,19,21,23,25,27,29,31,33,35,-1,-1,-1,-1,-1,-1,-1,-1,-1,-1,-1,-1,-1,-1,-1,-1],"loss_changes":[9.1725304E7,8.787801E7,0E0,1.703984E7,1.015876E8,0E0,0E0,1.9770704E8,1.7702728E8,6.312191E7,1.757067E8,1.083941E8,1.4193566E8,1.1268992E7,9.972554E6,2.4359288E8,2.6034762E8,1.1674416E7,4.0988782E6,1.843778E7,8.390016E7,0E0,0E0,0E0,0E0,0E0,0E0,0E0,0E0,0E0,0E0,0E0,0E0,0E0,0E0,0E0,0E0],"parents":[2147483647,0,0,1,1,3,3,4,4,7,7,8,8,9,9,10,10,11,11,12,12,13,13,14,14,15,15,16,16,17,17,18,18,19,19,20,20],"right_children":[2,4,-1,6,8,-1,-1,10,12,14,16,18,20,22,24,26,28,30,32,34,36,-1,-1,-1,-1,-1,-1,-1,-1,-1,-1,-1,-1,-1,-1,-1,-1],"split_conditions":[9.906069E-1,2.180258E-2,-2.0019938E3,3.3732814E-1,4.6907753E-1,-1.4302363E3,-2.2155E2,2.1366078E-1,1.705166E-1,4.8088974E-1,4.5382002E-1,6.3226825E-1,1.8906589E-1,7.5339496E-2,8.3002543E-1,4.7814876E-1,4.4132483E-1,4.0619808E-1,6.987029E-2,9.005639E-2,1.74437E-1,-2.4231094E2,-1.6499403E3,-2.0922658E2,6.675844E2,9.3299176E2,-9.853281E2,2.777558E3,5.1425714E2,2.0853188E3,6.436406E2,-4.7293594E2,5.6756252E1,-2.6675977E2,9.16311E2,-2.739717E3,-6.452909E2],"split_indices":[7,9,0,0,9,0,0,2,2,7,4,0,5,2,0,0,6,6,2,0,2,0,0,0,0,0,0,0,0,0,0,0,0,0,0,0,0],"split_type":[0,0,0,0,0,0,0,0,0,0,0,0,0,0,0,0,0,0,0,0,0,0,0,0,0,0,0,0,0,0,0,0,0,0,0,0,0],"sum_hessian":[1E2,9.9E1,1E0,5E0,9.4E1,3E0,2E0,5.1E1,4.3E1,8E0,4.3E1,9E0,3.4E1,5E0,3E0,2.2E1,2.1E1,5E0,4E0,6E0,2.8E1,1E0,4E0,2E0,1E0,1.2E1,1E1,6E0,1.5E1,3E0,2E0,2E0,2E0,1E0,5E0,1E0,2.7E1],"tree_param":{"num_deleted":"0","num_feature":"10","num_nodes":"37","size_leaf_vector":"1"}},{"base_weights":[2.7935004E-1,-5.071669E2,1.4098419E3,1.7469202E2,-5.526876E3,-2.5667063E3,2.6682227E3,-2.3721304E2,6.7215E3,-2.448875E2,-2.9110469E3,-8.742003E2,-7.244063E1,-1.1165759E3,4.2565806E3,3.5432808E1,-1.7378469E3,2.5290938E3,2.3925938E2,-3.23475E2,4.632844E2,2.104E2,-8.8680316E2,5.52173E3,-2.6445938E3,-1.5863591E3,1.1014688E3,-3.519797E2,2.5488985E2,1.1474758E3,7.3383457E3,-1.0247812E3,-1.6528595E2,-6.995018E1,-2.5896973E3,2.0338145E3,7.022565E1,-4.7439337E2,1.0481312E3,5.040797E2,2.6144705E3],"categories":[],"categories_nodes":[],"categories_segments":[],"categories_sizes":[],"default_left":[0,0,0,0,0,0,0,0,0,0,0,0,0,0,0,0,0,0,0,0,0,0,0,0,0,0,0,0,0,0,0,0,0,0,0,0,0,0,0,0,0],"id":32,"left_children":[1,3,5,7,9,11,13,15,17,19,-1,-1,-1,21,23,25,-1,-1,-1,-1,-1,27,-1,29,31,33,35,-1,-1,37,39,-1,-1,-1,-1,-1,-1,-1,-1,-1,-1],"loss_changes":[7.2958024E7,2.5767051E8,1.4195686E8,1.8227088E8,1.9617114E8,4.94916E6,1.3099669E8,9.714695E7,3.376835E7,9.120252E6,0E0,0E0,0E0,1.770814E7,1.4556797E8,1.0893842E8,0E0,0E0,0E0,0E0,0E0,5.419267E6,0E0,9.488182E7,2.962728E6,2.3635082E8,1.8556024E8,0E0,0E0,3.7537436E7,5.545459E7,0E0,0E0,0E0,0E0,0E0,0E0,0E0,0E0,0E0,0E0],"parents":[2147483647,0,0,1,1,2,2,3,3,4,4,5,5,6,6,7,7,8,8,9,9,13,13,14,14,15,15,21,21,23,23,24,24,25,25,26,26,29,29,30,30],"right_children":[2,4,6,8,10,12,14,16,18,20,-1,-1,-1,22,24,26,-1,-1,-1,-1,-1,28,-1,30,32,34,36,-1,-1,38,40,-1,-1,-1,-1,-1,-1,-1,-1,-1,-1],"split_conditions":[6.667079E-1,5.575666E-1,2.127038E-1,5.493261E-1,3.44471E-1,2.0665668E-1,3.703005E-1,9.018408E-1,6.104556E-1,2.7033037E-1,-2.9110469E3,-8.742003E2,-7.244063E1,5.6940275E-1,9.498793E-1,2.3935696E-1,-1.7378469E3,2.5290938E3,2.3925938E2,-3.23475E2,4.632844E2,1.9875269E-1,-8.8680316E2,1.6113032E-1,6.2458426E-1,2.0268105E-1,3.150883E-1,-3.519797E2,2.5488985E2,3.295096E-1,7.4588513E-1,-1.0247812E3,-1.6528595E2,-6.995018E1,-2.5896973E3,2.0338145E3,7.022565E1,-4.7439337E2,1.0481312E3,5.040797E2,2.6144705E3],"split_indices":[5,5,0,5,0,0,1,4,0,0,0,0,0,3,1,9,0,0,0,0,0,1,0,3,0,9,9,0,0,2,5,0,0,0,0,0,0,0,0,0,0],"split_type":[0,0,0,0,0,0,0,0,0,0,0,0,0,0,0,0,0,0,0,0,0,0,0,0,0,0,0,0,0,0,0,0,0,0,0,0,0,0,0,0,0],"sum_hessian":[1E2,7.4E1,2.6E1,6.6E1,8E0,6E0,2E1,6.3E1,3E0,4E0,4E0,5E0,1E0,6E0,1.4E1,6.1E1,2E0,2E0,1E0,3E0,1E0,4E0,2E0,1.2E1,2E0,2.4E1,3.7E1,1E0,3E0,4E0,8E0,1E0,1E0,2.1E1,3E0,4E0,3.3E1,2E0,2E0,2E0,6E0],"tree_param":{"num_deleted":"0","num_feature":"10","num_nodes":"41","size_leaf_vector":"1"}},{"base_weights":[-1.688389E1,3.245E3,-1.4984973E2,-4.4684064E2,1.5958939E3,-3.5636594E3,1.1152546E2,-5.6199546E3,-6.164492E2,4.719771E3,-4.332189E1,-2.0227501E2,-2.113132E3,-2.2859532E2,-2.6976564E1,3.937875E2,1.7301095E3,-1.4717804E2,1.3799813E3,6.868426E2,-7.538243E2,6.8153534E2,-9.970938E1,-5.970636E2,1.67733E2],"categories":[],"categories_nodes":[],"categories_segments":[],"categories_sizes":[],"default_left":[0,0,0,0,0,0,0,0,0,0,0,0,0,0,0,0,0,0,0,0,0,0,0,0,0],"id":33,"left_children":[1,3,5,-1,-1,7,9,11,13,15,17,-1,-1,-1,-1,-1,-1,19,-1,21,23,-1,-1,-1,-1],"loss_changes":[4.4291892E7,4.7212828E7,8.784138E7,0E0,0E0,3.895793E7,6.5853332E7,2.341788E7,2.3799388E5,3.134564E6,4.4077804E7,0E0,0E0,0E0,0E0,0E0,0E0,4.5547796E7,0E0,6.213966E7,8.552413E7,0E0,0E0,0E0,0E0],"parents":[2147483647,0,0,1,1,2,2,5,5,6,6,7,7,8,8,9,9,10,10,17,17,19,19,20,20],"right_children":[2,4,6,-1,-1,8,10,12,14,16,18,-1,-1,-1,-1,-1,-1,20,-1,22,24,-1,-1,-1,-1],"split_conditions":[7.5580105E-2,2.0390284E-1,1.503647E-1,-4.4684064E2,1.5958939E3,3.1193125E-1,1.7044385E-1,3.5267574E-1,8.3002543E-1,3.44471E-1,9.753225E-1,-2.0227501E2,-2.113132E3,-2.2859532E2,-2.6976564E1,3.937875E2,1.7301095E3,4.0619808E-1,1.3799813E3,3.0308604E-1,4.5921543E-1,6.8153534E2,-9.970938E1,-5.970636E2,1.67733E2],"split_indices":[4,5,4,0,0,1,4,2,0,0,2,0,0,0,0,0,0,6,0,0,7,0,0,0,0],"split_type":[0,0,0,0,0,0,0,0,0,0,0,0,0,0,0,0,0,0,0,0,0,0,0,0,0],"sum_hessian":[1E2,3E0,9.7E1,1E0,2E0,6E0,9.1E1,3E0,3E0,2E0,8.9E1,1E0,2E0,2E0,1E0,1E0,1E0,8.8E1,1E0,3.7E1,5.1E1,1.4E1,2.3E1,2.6E1,2.5E1],"tree_param":{"num_deleted":"0","num_feature":"10","num_nodes":"25","size_leaf_vector":"1"}},{"base_weights":[1.0297943E1,-2.6881604E3,1.7884431E2,-1.0898258E3,-1.5979532E2,-1.549209E3,4.4415204E2,-2.919453E3,2.2637031E3,2.4455251E3,2.5307556E2,-1.3277083E2,-5.679581E3,9.207688E2,-2.2931252E1,-4.019574E2,1.119423E3,4.3700626E2,-7.42E2,-7.289219E2,-2.1108687E3,9.840511E2,-3.8382673E3,-3.9093533E2,2.4913718E3,-3.034125E2,5.0325E1,7.729167E2,-2.2195312E1,-2.1645625E3,-3.4814987E2,5.9563806E2,-7.471793E2,-1.9289688E2,1.0970144E3],"categories":[],"categories_nodes":[],"categories_segments":[],"categories_sizes":[],"default_left":[0,0,0,0,0,0,0,0,0,0,0,0,0,0,0,0,0,0,0,0,0,0,0,0,0,0,0,0,0,0,0,0,0,0,0],"id":34,"left_children":[1,3,5,-1,-1,7,9,11,13,-1,15,17,19,-1,-1,21,23,-1,25,-1,-1,27,29,31,33,-1,-1,-1,-1,-1,-1,-1,-1,-1,-1],"loss_changes":[4.641711E7,1.0281472E7,4.470081E7,0E0,0E0,7.4528824E7,1.2164722E8,7.616192E7,7.774782E6,0E0,4.7551308E7,6.8909285E6,4.94824E6,0E0,0E0,2.323893E8,7.557078E7,0E0,1.3949775E6,0E0,0E0,5.9156864E7,1.1822403E8,9.475829E7,7.175071E7,0E0,0E0,0E0,0E0,0E0,0E0,0E0,0E0,0E0,0E0],"parents":[2147483647,0,0,1,1,2,2,5,5,6,6,7,7,8,8,10,10,11,11,12,12,15,15,16,16,18,18,21,21,22,22,23,23,24,24],"right_children":[2,4,6,-1,-1,8,10,12,14,-1,16,18,20,-1,-1,22,24,-1,26,-1,-1,28,30,32,34,-1,-1,-1,-1,-1,-1,-1,-1,-1,-1],"split_conditions":[2.180258E-2,3.3732814E-1,1.1605002E-1,-1.0898258E3,-1.5979532E2,6.6199267E-1,1.323403E-1,4.5963484E-1,5.0569636E-1,2.4455251E3,5.278076E-1,4.8566397E-2,5.985873E-1,9.207688E2,-2.2931252E1,4.0375492E-1,5.2189255E-1,4.3700626E2,8.701654E-1,-7.289219E2,-2.1108687E3,3.0308604E-1,3.3441922E-1,8.122999E-1,3.5351396E-1,-3.034125E2,5.0325E1,7.729167E2,-2.2195312E1,-2.1645625E3,-3.4814987E2,5.9563806E2,-7.471793E2,-1.9289688E2,1.0970144E3],"split_indices":[9,0,8,0,0,9,8,0,3,0,6,1,1,0,0,6,0,0,1,0,0,0,8,6,5,0,0,0,0,0,0,0,0,0,0],"split_type":[0,0,0,0,0,0,0,0,0,0,0,0,0,0,0,0,0,0,0,0,0,0,0,0,0,0,0,0,0,0,0,0,0,0,0],"sum_hessian":[1E2,5E0,9.5E1,3E0,2E0,1.2E1,8.3E1,9E0,3E0,1E0,8.2E1,5E0,4E0,2E0,1E0,4.7E1,3.5E1,1E0,4E0,2E0,2E0,3.4E1,1.3E1,1.7E1,1.8E1,3E0,1E0,1.3E1,2.1E1,5E0,8E0,8E0,9E0,5E0,1.3E1],"tree_param":{"num_deleted":"0","num_feature":"10","num_nodes":"35","size_leaf_vector":"1"}},{"base_weights":[-8.350262E0,-1.5890729E3,2.0250554E2,4.8396564E2,-2.0268466E3,-1.7169054E2,1.4401826E3,-1.23947266E2,-1.0775814E3,1.414622E3,-1.0844114E3,-1.1379316E3,2.8105208E3,-5.4907715E2,1.4526251E2,6.4488214E2,2.1303E3,-4.360497E3,-5.658882E2,-5.1940624E1,-6.6328125E2,1.0859664E3,1.7092576E3,-2.83875E1,-2.0070587E2,1.6055564E3,-1.9175491E3,-1.2321523E3,-2.1234375E3,1.347091E2,-3.887948E3,-2.8089612E2,4.0323438E2,1.451975E3,-4.5751074E2,-6.351953E2,6.609744E2,3.1340158E2,-1.3201149E3,-4.4553595E2,-7.09875E1,1.4715074E2,-1.1115969E3,-1.6092711E3,-3.9445312E1,1.7199376E2,-1.6050001E1,1.7368204E2,-7.133727E2],"categories":[],"categories_nodes":[],"categories_segments":[],"categories_sizes":[],"default_left":[0,0,0,0,0,0,0,0,0,0,0,0,0,0,0,0,0,0,0,0,0,0,0,0,0,0,0,0,0,0,0,0,0,0,0,0,0,0,0,0,0,0,0,0,0,0,0,0,0],"id":35,"left_children":[1,3,5,-1,7,9,11,13,-1,15,17,19,21,23,-1,25,-1,27,29,31,-1,33,-1,-1,-1,35,37,39,-1,41,43,-1,45,-1,47,-1,-1,-1,-1,-1,-1,-1,-1,-1,-1,-1,-1,-1,-1],"loss_changes":[3.398555E7,2.0092292E7,4.192932E7,0E0,3.2315112E7,1.02884264E8,7.7388824E7,1.8171385E6,0E0,1.0922353E8,7.397513E7,9.207361E6,6.3515824E7,1.5472625E5,0E0,6.2158616E7,0E0,4.228873E7,9.362079E7,2.3902942E6,0E0,6.015567E7,0E0,0E0,0E0,4.4717332E7,5.607987E7,6.55928E5,0E0,4.827023E7,3.8114056E7,0E0,3.413943E5,0E0,1.7299854E7,0E0,0E0,0E0,0E0,0E0,0E0,0E0,0E0,0E0,0E0,0E0,0E0,0E0,0E0],"parents":[2147483647,0,0,1,1,2,2,4,4,5,5,6,6,7,7,9,9,10,10,11,11,12,12,13,13,15,15,17,17,18,18,19,19,21,21,25,25,26,26,27,27,29,29,30,30,32,32,34,34],"right_children":[2,4,6,-1,8,10,12,14,-1,16,18,20,22,24,-1,26,-1,28,30,32,-1,34,-1,-1,-1,36,38,40,-1,42,44,-1,46,-1,48,-1,-1,-1,-1,-1,-1,-1,-1,-1,-1,-1,-1,-1,-1],"split_conditions":[1.000627E-1,1.6503211E-2,6.699027E-1,4.8396564E2,5.0698745E-1,3.1012282E-1,3.703005E-1,4.238049E-1,-1.0775814E3,2.964052E-1,3.5444483E-1,5.6940275E-1,5.1590306E-1,5.32227E-1,1.4526251E2,4.2334628E-1,2.1303E3,4.1935086E-1,5.549568E-1,1.9875269E-1,-6.6328125E2,4.4546172E-1,1.7092576E3,-2.83875E1,-2.0070587E2,1.6046433E-2,2.0268105E-1,4.2580667E-1,-2.1234375E3,9.0346706E-1,6.18035E-1,-2.8089612E2,7.0345914E-1,1.451975E3,8.188662E-1,-6.351953E2,6.609744E2,3.1340158E2,-1.3201149E3,-4.4553595E2,-7.09875E1,1.4715074E2,-1.1115969E3,-1.6092711E3,-3.9445312E1,1.7199376E2,-1.6050001E1,1.7368204E2,-7.133727E2],"split_indices":[0,4,5,0,3,1,1,3,0,1,1,3,2,1,0,5,0,0,5,1,0,1,0,0,0,1,9,4,0,4,5,0,2,0,1,0,0,0,0,0,0,0,0,0,0,0,0,0,0],"split_type":[0,0,0,0,0,0,0,0,0,0,0,0,0,0,0,0,0,0,0,0,0,0,0,0,0,0,0,0,0,0,0,0,0,0,0,0,0,0,0,0,0,0,0,0,0,0,0,0,0],"sum_hessian":[1E2,1.1E1,8.9E1,1E0,1E1,6.9E1,2E1,5E0,5E0,2.5E1,4.4E1,7E0,1.3E1,3E0,2E0,2.3E1,2E0,5E0,3.9E1,4E0,3E0,9E0,4E0,1E0,2E0,1.7E1,6E0,3E0,2E0,3.3E1,6E0,1E0,3E0,2E0,7E0,2E0,1.5E1,3E0,3E0,2E0,1E0,3.1E1,2E0,4E0,2E0,2E0,1E0,5E0,2E0],"tree_param":{"num_deleted":"0","num_feature":"10","num_nodes":"49","size_leaf_vector":"1"}},{"base_weights":[-3.5032066E1,-9.471032E2,5.9927197E1,1.7591892E3,-1.0879023E2,3.2390156E3,-7.2475E1,-6.2562476E2,4.8269073E2,1.5261798E2,1.1383219E3,-2.2800938E2,1.9177188E2,-1.3651948E0,-2.3542385E3,3.5851675E3,-1.1731002E2,-2.0537734E3,5.459892E2,-4.2895938E3,6.186081E2,-1.3858594E3,1.7552251E3,-5.317305E2,2.1124844E3,2.619375E1,-8.3460626E2,1.4387134E3,-3.1146317E1,-2.0355626E2,-1.6140594E3,-2.4998985E2,4.6586603E2,1.9008751E2,-8.1372424E2,-5.1078024E2,2.2366568E2,-3.8110626E2,1.2364478E3],"categories":[],"categories_nodes":[],"categories_segments":[],"categories_sizes":[],"default_left":[0,0,0,0,0,0,0,0,0,0,0,0,0,0,0,0,0,0,0,0,0,0,0,0,0,0,0,0,0,0,0,0,0,0,0,0,0,0,0],"id":36,"left_children":[1,-1,3,5,7,9,11,13,15,-1,-1,-1,-1,17,19,21,23,25,27,29,31,33,-1,35,37,-1,-1,-1,-1,-1,-1,-1,-1,-1,-1,-1,-1,-1,-1],"loss_changes":[3.0131728E7,0E0,2.85742E7,2.4629654E7,2.8120478E7,5.651568E6,2.932561E6,5.2872868E7,8.046458E7,0E0,0E0,0E0,0E0,4.268694E7,7.744924E7,8.694423E7,3.5313956E7,1.2716828E7,8.334327E7,2.7855424E7,9.432937E6,9.755522E6,0E0,4.9126412E7,4.601265E7,0E0,0E0,0E0,0E0,0E0,0E0,0E0,0E0,0E0,0E0,0E0,0E0,0E0,0E0],"parents":[2147483647,0,0,2,2,3,3,4,4,5,5,6,6,7,7,8,8,13,13,14,14,15,15,16,16,17,17,18,18,19,19,20,20,21,21,23,23,24,24],"right_children":[2,-1,4,6,8,10,12,14,16,-1,-1,-1,-1,18,20,22,24,26,28,30,32,34,-1,36,38,-1,-1,-1,-1,-1,-1,-1,-1,-1,-1,-1,-1,-1,-1],"split_conditions":[2.6839063E-2,-9.471032E2,9.8752655E-2,3.960422E-1,5.542318E-1,1.9319949E-1,4.5963484E-1,3.7020332E-1,6.104556E-1,1.5261798E2,1.1383219E3,-2.2800938E2,1.9177188E2,2.2846855E-1,4.1231084E-1,2.8911301E-1,7.832487E-1,2.6999104E-1,2.0708969E-1,3.5267574E-1,4.378517E-2,5.565532E-1,1.7552251E3,8.3002543E-1,6.481894E-1,2.619375E1,-8.3460626E2,1.4387134E3,-3.1146317E1,-2.0355626E2,-1.6140594E3,-2.4998985E2,4.6586603E2,1.9008751E2,-8.1372424E2,-5.1078024E2,2.2366568E2,-3.8110626E2,1.2364478E3],"split_indices":[5,0,7,4,0,0,0,0,0,0,0,0,0,5,1,7,4,8,6,2,3,0,0,0,2,0,0,0,0,0,0,0,0,0,0,0,0,0,0],"split_type":[0,0,0,0,0,0,0,0,0,0,0,0,0,0,0,0,0,0,0,0,0,0,0,0,0,0,0,0,0,0,0,0,0,0,0,0,0,0,0],"sum_hessian":[1E2,2E0,9.8E1,8E0,9E1,4E0,4E0,4.8E1,4.2E1,1E0,3E0,2E0,2E0,3.6E1,1.2E1,6E0,3.6E1,7E0,2.9E1,7E0,5E0,2E0,4E0,3.1E1,5E0,2E0,5E0,3E0,2.6E1,2E0,5E0,2E0,3E0,1E0,1E0,1.6E1,1.5E1,2E0,3E0],"tree_param":{"num_deleted":"0","num_feature":"10","num_nodes":"39","size_leaf_vector":"1"}},{"base_weights":[-1.4578671E1,5.3517418E1,-1.0236282E3,3.7751285E2,-6.1573126E2,6.4201575E2,-1.6865107E3,-1.2349949E3,1.4738418E3,8.551194E1,1.9666908E3,8.018719E2,-2.6911284E3,-2.0013416E3,4.3492014E2,2.838225E3,-6.0009766E2,1.8741473E3,-2.4622383E2,2.6124111E3,-6.3981445E2,-1.6861993E2,-8.856883E2,-3.2775178E3,-3.6099652E2,-1.4263438E3,1.603276E3,3.8673828E3,-1.9176094E2,4.146797E1,-2.676844E2,1.01408673E3,-3.0159376E1,-1.328737E2,1.0546875E3,5.642344E1,9.4722156E2,-5.1940424E2,-1.3432257E3,4.3817192E1,-3.0939844E2,1.7883751E2,-6.897625E2,1.5083203E2,7.6085626E2,3.454969E2,1.316622E3],"categories":[],"categories_nodes":[],"categories_segments":[],"categories_sizes":[],"default_left":[0,0,0,0,0,0,0,0,0,0,0,0,0,0,0,0,0,0,0,0,0,0,0,0,0,0,0,0,0,0,0,0,0,0,0,0,0,0,0,0,0,0,0,0,0,0,0],"id":37,"left_children":[1,3,-1,5,7,9,11,13,15,17,19,-1,21,23,25,27,29,31,33,35,-1,-1,-1,37,39,41,43,45,-1,-1,-1,-1,-1,-1,-1,-1,-1,-1,-1,-1,-1,-1,-1,-1,-1,-1,-1],"loss_changes":[2.3549714E7,2.1915796E7,0E0,3.82067E7,4.4522068E7,4.4800212E7,4.222951E7,3.41435E7,2.4340398E7,2.656905E7,5.3218784E7,0E0,2.232884E6,3.649748E7,2.185839E7,2.0366152E7,9.86242E5,2.1158848E7,2.9673782E7,2.0546112E7,0E0,0E0,0E0,1.0800544E7,3.209681E6,8.431981E6,4.884902E6,6.09128E5,0E0,0E0,0E0,0E0,0E0,0E0,0E0,0E0,0E0,0E0,0E0,0E0,0E0,0E0,0E0,0E0,0E0,0E0,0E0],"parents":[2147483647,0,0,1,1,3,3,4,4,5,5,6,6,7,7,8,8,9,9,10,10,12,12,13,13,14,14,15,15,16,16,17,17,18,18,19,19,23,23,24,24,25,25,26,26,27,27],"right_children":[2,4,-1,6,8,10,12,14,16,18,20,-1,22,24,26,28,30,32,34,36,-1,-1,-1,38,40,42,44,46,-1,-1,-1,-1,-1,-1,-1,-1,-1,-1,-1,-1,-1,-1,-1,-1,-1,-1,-1],"split_conditions":[9.906069E-1,6.1321366E-1,-1.0236282E3,9.5230836E-1,7.7998734E-1,4.596482E-1,8.9774914E-2,8.447967E-1,6.658785E-1,1.5302812E-1,9.6847135E-1,8.018719E2,9.632902E-1,6.741325E-1,4.1970763E-1,8.7734437E-1,1.621331E-1,5.9678847E-1,9.1465986E-1,1.09178536E-1,-6.3981445E2,-1.6861993E2,-8.856883E2,2.127038E-1,6.667079E-1,1.7539698E-1,7.4588513E-1,1.524652E-1,-1.9176094E2,4.146797E1,-2.676844E2,1.01408673E3,-3.0159376E1,-1.328737E2,1.0546875E3,5.642344E1,9.4722156E2,-5.1940424E2,-1.3432257E3,4.3817192E1,-3.0939844E2,1.7883751E2,-6.897625E2,1.5083203E2,7.6085626E2,3.454969E2,1.316622E3],"split_indices":[7,4,0,3,3,4,9,4,1,1,9,0,3,7,5,4,2,0,0,1,0,0,0,0,5,0,5,1,0,0,0,0,0,0,0,0,0,0,0,0,0,0,0,0,0,0,0],"split_type":[0,0,0,0,0,0,0,0,0,0,0,0,0,0,0,0,0,0,0,0,0,0,0,0,0,0,0,0,0,0,0,0,0,0,0,0,0,0,0,0,0,0,0,0,0,0,0],"sum_hessian":[1E2,9.9E1,1E0,6.7E1,3.2E1,6E1,7E0,2.5E1,7E0,4.3E1,1.7E1,1E0,6E0,1.7E1,8E0,4E0,3E0,6E0,3.7E1,1.5E1,2E0,1E0,5E0,9E0,8E0,3E0,5E0,3E0,1E0,1E0,2E0,3E0,3E0,3.6E1,1E0,3E0,1.2E1,5E0,4E0,5E0,3E0,1E0,2E0,3E0,2E0,1E0,2E0],"tree_param":{"num_deleted":"0","num_feature":"10","num_nodes":"47","size_leaf_vector":"1"}},{"base_weights":[-5.156627E0,5.2797432E1,-8.700844E2,-1.5346218E3,1.5249973E2,-6.295556E2,-2.7121875E2,4.9053467E2,-3.9065057E2,-1.4451094E2,2.2462502E1,1.7986741E3,8.174146E1,-1.2401509E3,6.671562E1,2.9915469E3,-9.468063E2,-2.5057192E3,3.2053452E2,-2.3116243E3,9.3653125E2,-1.5330156E3,4.444271E2,-8.120937E1,1.1522837E3,2.3400626E2,-7.074094E2,-9.0747833E2,-1.4221407E2,7.104067E2,-2.264734E1,-1.117079E3,-4.1287836E2,3.67125E1,3.32843E2,-1.00439064E2,-5.246614E2,-1.6850333E2,2.9627982E2],"categories":[],"categories_nodes":[],"categories_segments":[],"categories_sizes":[],"default_left":[0,0,0,0,0,0,0,0,0,0,0,0,0,0,0,0,0,0,0,0,0,0,0,0,0,0,0,0,0,0,0,0,0,0,0,0,0,0,0],"id":38,"left_children":[1,3,-1,5,7,-1,9,11,13,-1,-1,15,17,19,21,23,25,27,29,31,33,35,37,-1,-1,-1,-1,-1,-1,-1,-1,-1,-1,-1,-1,-1,-1,-1,-1],"loss_changes":[1.7099332E7,1.6060964E7,0E0,3.705415E6,1.7633984E7,0E0,2.5460952E5,3.1403722E7,1.4458449E7,0E0,0E0,4.868254E7,2.9225082E7,3.2484246E7,1.5787235E7,2.8749192E7,1.4024022E7,2.785486E6,3.504565E7,6.761716E6,5.682505E5,7.07693E5,1.2030965E7,0E0,0E0,0E0,0E0,0E0,0E0,0E0,0E0,0E0,0E0,0E0,0E0,0E0,0E0,0E0,0E0],"parents":[2147483647,0,0,1,1,3,3,4,4,6,6,7,7,8,8,11,11,12,12,13,13,14,14,15,15,16,16,17,17,18,18,19,19,20,20,21,21,22,22],"right_children":[2,4,-1,6,8,-1,10,12,14,-1,-1,16,18,20,22,24,26,28,30,32,34,36,38,-1,-1,-1,-1,-1,-1,-1,-1,-1,-1,-1,-1,-1,-1,-1,-1],"split_conditions":[9.906069E-1,2.180258E-2,-8.700844E2,3.3732814E-1,6.123478E-1,-6.295556E2,5.3718734E-1,2.0268105E-1,2.7784178E-1,-1.4451094E2,2.2462502E1,5.825581E-1,2.3935696E-1,8.610143E-1,6.6460466E-1,1.7209418E-1,1.524652E-1,5.542318E-1,3.1966424E-1,1.1605002E-1,1.857093E-1,4.742369E-1,2.556775E-1,-8.120937E1,1.1522837E3,2.3400626E2,-7.074094E2,-9.0747833E2,-1.4221407E2,7.104067E2,-2.264734E1,-1.117079E3,-4.1287836E2,3.67125E1,3.32843E2,-1.00439064E2,-5.246614E2,-1.6850333E2,2.9627982E2],"split_indices":[7,9,0,0,1,0,0,9,3,0,0,4,9,1,1,5,1,0,9,8,0,3,6,0,0,0,0,0,0,0,0,0,0,0,0,0,0,0,0],"split_type":[0,0,0,0,0,0,0,0,0,0,0,0,0,0,0,0,0,0,0,0,0,0,0,0,0,0,0,0,0,0,0,0,0,0,0,0,0,0,0],"sum_hessian":[1E2,9.9E1,1E0,5E0,9.4E1,3E0,2E0,5.8E1,3.6E1,1E0,1E0,1.3E1,4.5E1,1.2E1,2.4E1,9E0,4E0,3E0,4.2E1,8E0,4E0,4E0,2E1,2E0,7E0,2E0,2E0,2E0,1E0,6E0,3.6E1,2E0,6E0,1E0,3E0,1E0,3E0,7E0,1.3E1],"tree_param":{"num_deleted":"0","num_feature":"10","num_nodes":"39","size_leaf_vector":"1"}},{"base_weights":[-3.3747417E1,1.5219795E1,-7.395703E2,-5.404047E2,7.067374E1,3.0869577E2,-4.0751193E2,6.363128E2,-3.3147147E2,-8.372381E2,1.0400371E3,-1.5647995E2,1.1911877E3,1.4316302E3,-9.0075696E2,-1.0386077E3,6.2955005E2,2.0372125E3,-4.664414E2,-5.9513214E2,1.3891501E2,7.6808356E2,5.2646633E1,6.9453284E2,-6.706563E1,-7.856192E1,-5.601921E2,-3.840532E2,5.5111877E1,8.437547E2,-1.596E2,6.052266E1,-2.2692502E2],"categories":[],"categories_nodes":[],"categories_segments":[],"categories_sizes":[],"default_left":[0,0,0,0,0,0,0,0,0,0,0,0,0,0,0,0,0,0,0,0,0,0,0,0,0,0,0,0,0,0,0,0,0],"id":39,"left_children":[1,3,-1,-1,5,7,9,11,13,15,17,19,21,23,25,27,-1,29,31,-1,-1,-1,-1,-1,-1,-1,-1,-1,-1,-1,-1,-1,-1],"loss_changes":[1.2062897E7,1.0200898E7,0E0,0E0,1.1280032E7,1.405308E7,2.13984E7,1.9542032E7,2.437484E7,1.754989E7,1.2968026E7,2.242779E7,3.570589E7,9.291461E6,1.0626241E7,7.617024E6,0E0,1.145585E7,9.2762806E5,0E0,0E0,0E0,0E0,0E0,0E0,0E0,0E0,0E0,0E0,0E0,0E0,0E0,0E0],"parents":[2147483647,0,0,1,1,4,4,5,5,6,6,7,7,8,8,9,9,10,10,11,11,12,12,13,13,14,14,15,15,17,17,18,18],"right_children":[2,4,-1,-1,6,8,10,12,14,16,18,20,22,24,26,28,-1,30,32,-1,-1,-1,-1,-1,-1,-1,-1,-1,-1,-1,-1,-1,-1],"split_conditions":[9.906069E-1,2.6839063E-2,-7.395703E2,-5.404047E2,6.1321366E-1,5.6940275E-1,7.7998734E-1,3.5351396E-1,1.5552065E-1,9.976181E-1,6.658785E-1,2.5470924E-1,6.104556E-1,4.3986073E-1,7.1140325E-1,6.383539E-1,6.2955005E2,8.7734437E-1,1.621331E-1,-5.9513214E2,1.3891501E2,7.6808356E2,5.2646633E1,6.9453284E2,-6.706563E1,-7.856192E1,-5.601921E2,-3.840532E2,5.5111877E1,8.437547E2,-1.596E2,6.052266E1,-2.2692502E2],"split_indices":[7,5,0,0,4,3,3,5,9,8,1,4,0,0,2,9,0,4,2,0,0,0,0,0,0,0,0,0,0,0,0,0,0],"split_type":[0,0,0,0,0,0,0,0,0,0,0,0,0,0,0,0,0,0,0,0,0,0,0,0,0,0,0,0,0,0,0,0,0],"sum_hessian":[1E2,9.9E1,1E0,2E0,9.7E1,6.5E1,3.2E1,4.3E1,2.2E1,2.5E1,7E0,1.8E1,2.5E1,5E0,1.7E1,2.4E1,1E0,4E0,3E0,4E0,1.4E1,1E1,1.5E1,3E0,2E0,1.1E1,6E0,2E1,4E0,3E0,1E0,1E0,2E0],"tree_param":{"num_deleted":"0","num_feature":"10","num_nodes":"33","size_leaf_vector":"1"}},{"base_weights":[-2.4695206E1,-1.1345126E2,1.0212754E3,-3.0761237E2,3.5520035E2,8.9198444E2,3.1766293E2,6.4946735E2,-4.8691525E2,6.3747656E2,5.7836876E1,-1.4162187E2,2.9317502E2,-8.302539E1,1.9520859E3,-9.049232E2,-2.905283E2,-8.497087E2,3.8915173E2,-3.2566147E2,8.9625E1,-2.0983595E2,4.2672186E2,8.0750006E2,-3.999844E1,-5.68275E2,1.1613472E3,-1.5378422E3,1.7412502E2,9.383811E2,-9.559517E1,-2.8863283E1,-1.1768438E2,4.2075E1,-1.7437501E0,-4.6875E-3,1.6002306E2,-3.813194E2,6.3658056E0,6.6012E2,-3.29925E1,-1.281457E2,-5.12618E2,3.551543E1,3.9859454E2,3.5771252E2,-1.5428906E2],"categories":[],"categories_nodes":[],"categories_segments":[],"categories_sizes":[],"default_left":[0,0,0,0,0,0,0,0,0,0,0,0,0,0,0,0,0,0,0,0,0,0,0,0,0,0,0,0,0,0,0,0,0,0,0,0,0,0,0,0,0,0,0,0,0,0,0],"id":40,"left_children":[1,3,5,7,9,-1,11,13,15,-1,17,19,-1,21,23,-1,25,27,29,31,33,-1,35,-1,-1,37,39,41,-1,43,45,-1,-1,-1,-1,-1,-1,-1,-1,-1,-1,-1,-1,-1,-1,-1,-1],"loss_changes":[9.492324E6,8.662691E6,1.0043142E7,1.1813914E7,1.4612116E7,0E0,2.2589682E6,1.0657818E7,2.743896E7,0E0,7.8477495E6,2.4198028E5,0E0,2.8122508E6,6.528202E6,0E0,2.2435668E7,7.7814095E6,5.148212E6,8.1160938E3,1.5309773E4,0E0,2.2764781E5,0E0,0E0,1.9084332E7,1.2130725E7,2.19111E5,0E0,2.722869E6,6.545263E6,0E0,0E0,0E0,0E0,0E0,0E0,0E0,0E0,0E0,0E0,0E0,0E0,0E0,0E0,0E0,0E0],"parents":[2147483647,0,0,1,1,2,2,3,3,4,4,6,6,7,7,8,8,10,10,11,11,13,13,14,14,16,16,17,17,18,18,19,19,20,20,22,22,25,25,26,26,27,27,29,29,30,30],"right_children":[2,4,6,8,10,-1,12,14,16,-1,18,20,-1,22,24,-1,26,28,30,32,34,-1,36,-1,-1,38,40,42,-1,44,46,-1,-1,-1,-1,-1,-1,-1,-1,-1,-1,-1,-1,-1,-1,-1,-1],"split_conditions":[9.112237E-1,7.0958966E-1,1.6136466E-1,1.4913398E-1,1.4585148E-1,8.9198444E2,7.904267E-1,8.0296594E-1,2.1366078E-1,6.3747656E2,2.781762E-1,9.49093E-1,2.9317502E2,4.5004907E-1,6.3226825E-1,-9.049232E2,6.86503E-1,5.489846E-1,6.075228E-1,9.3875366E-1,9.613373E-1,-2.0983595E2,2.127038E-1,8.0750006E2,-3.999844E1,4.1874433E-1,3.0548364E-1,9.005639E-2,1.7412502E2,4.7195446E-1,2.0268105E-1,-2.8863283E1,-1.1768438E2,4.2075E1,-1.7437501E0,-4.6875E-3,1.6002306E2,-3.813194E2,6.3658056E0,6.6012E2,-3.29925E1,-1.281457E2,-5.12618E2,3.551543E1,3.9859454E2,3.5771252E2,-1.5428906E2],"split_indices":[0,8,4,2,6,0,1,9,2,0,4,0,0,1,0,0,3,9,3,0,0,0,0,0,0,6,9,0,0,6,9,0,0,0,0,0,0,0,0,0,0,0,0,0,0,0,0],"split_type":[0,0,0,0,0,0,0,0,0,0,0,0,0,0,0,0,0,0,0,0,0,0,0,0,0,0,0,0,0,0,0,0,0,0,0,0,0,0,0,0,0,0,0,0,0,0,0],"sum_hessian":[1E2,9.3E1,7E0,6.6E1,2.7E1,1E0,6E0,1E1,5.6E1,3E0,2.4E1,4E0,2E0,7E0,3E0,3E0,5.3E1,6E0,1.8E1,2E0,2E0,3E0,4E0,2E0,1E0,4.5E1,8E0,4E0,2E0,8E0,1E1,1E0,1E0,1E0,1E0,1E0,3E0,2E1,2.5E1,4E0,4E0,1E0,3E0,3E0,5E0,2E0,8E0],"tree_param":{"num_deleted":"0","num_feature":"10","num_nodes":"47","size_leaf_vector":"1"}},{"base_weights":[2.0389369E0,4.403214E1,-6.295922E2,-2.5750977E1,8.4975684E2,3.803471E2,-1.9764484E2,7.581844E2,2.4907031E2,4.661178E1,9.437813E2,-1.4437181E3,2.4431967E1,-1.20376564E2,2.3453752E2,3.584233E2,-1.3346813E3,-1.1963281E2,-1.9940929E3,2.5430795E2,-9.599866E2,-2.768125E2,7.61849E1,5.6972815E2,4.5621715E0,-7.754063E1,-4.6173517E2,-9.948438E1,7.744688E1,-2.7866345E2,-9.3142596E2,3.738429E2,-4.01807E0,-6.415143E2,-7.5237305E1,-2.4534376E1,-1.0003126E2,3.5765625E1,-1.4824219E0],"categories":[],"categories_nodes":[],"categories_segments":[],"categories_sizes":[],"default_left":[0,0,0,0,0,0,0,0,0,0,0,0,0,0,0,0,0,0,0,0,0,0,0,0,0,0,0,0,0,0,0,0,0,0,0,0,0,0,0],"id":41,"left_children":[1,3,-1,5,7,9,11,-1,13,15,-1,17,19,21,-1,23,25,27,29,31,33,35,37,-1,-1,-1,-1,-1,-1,-1,-1,-1,-1,-1,-1,-1,-1,-1,-1],"loss_changes":[9.002048E6,5.64448E6,0E0,6.56711E6,7.4318595E6,2.5696668E7,1.8299054E7,0E0,1.4717951E6,1.1676661E7,0E0,7.048874E6,1.3142901E7,1.7483533E5,0E0,1.1604342E7,7.02269E5,4.0594597E5,5.397706E6,1.2495931E7,8.656546E6,5.8619844E3,1.1062641E4,0E0,0E0,0E0,0E0,0E0,0E0,0E0,0E0,0E0,0E0,0E0,0E0,0E0,0E0,0E0,0E0],"parents":[2147483647,0,0,1,1,3,3,4,4,5,5,6,6,8,8,9,9,11,11,12,12,13,13,15,15,16,16,17,17,18,18,19,19,20,20,21,21,22,22],"right_children":[2,4,-1,6,8,10,12,-1,14,16,-1,18,20,22,-1,24,26,28,30,32,34,36,38,-1,-1,-1,-1,-1,-1,-1,-1,-1,-1,-1,-1,-1,-1,-1,-1],"split_conditions":[9.906069E-1,9.112237E-1,-6.295922E2,3.1012282E-1,1.6136466E-1,2.964052E-1,3.6492783E-1,7.581844E2,7.904267E-1,8.151505E-1,9.437813E2,2.4014676E-1,8.0527866E-1,9.49093E-1,2.3453752E2,1.9535774E-1,5.008738E-2,4.1935086E-1,4.5963484E-1,2.7697113E-1,8.2851875E-1,9.3875366E-1,9.613373E-1,5.6972815E2,4.5621715E0,-7.754063E1,-4.6173517E2,-9.948438E1,7.744688E1,-2.7866345E2,-9.3142596E2,3.738429E2,-4.01807E0,-6.415143E2,-7.5237305E1,-2.4534376E1,-1.0003126E2,3.5765625E1,-1.4824219E0],"split_indices":[7,0,0,1,4,1,1,0,1,3,0,3,0,0,0,7,1,0,0,2,0,0,0,0,0,0,0,0,0,0,0,0,0,0,0,0,0,0,0],"split_type":[0,0,0,0,0,0,0,0,0,0,0,0,0,0,0,0,0,0,0,0,0,0,0,0,0,0,0,0,0,0,0,0,0,0,0,0,0,0,0],"sum_hessian":[1E2,9.9E1,1E0,9.2E1,7E0,2.7E1,6.5E1,1E0,6E0,2.5E1,2E0,9E0,5.6E1,4E0,2E0,2.1E1,4E0,3E0,6E0,4.6E1,1E1,2E0,2E0,3E0,1.8E1,1E0,3E0,2E0,1E0,4E0,2E0,9E0,3.7E1,3E0,7E0,1E0,1E0,1E0,1E0],"tree_param":{"num_deleted":"0","num_feature":"10","num_nodes":"39","size_leaf_vector":"1"}},{"base_weights":[-1.8163579E0,3.3842354E1,-5.3515314E2,7.4137764E1,-1.2937552E3,-3.241732E1,7.7333777E2,-1.2205899E2,-4.601309E2,1.9270331E2,-4.5906595E2,1.2906602E3,-4.5315105E1,3.0776432E1,1.8705875E3,-1.3388356E2,-1.0960424E3,1.4925E1,1.6960052E3,-2.3913672E2,6.846563E1,-1.9817583E2,1.04279305E2,-7.575E1,7.3934534E2,6.5565E1,-1.2492638E2,-4.9855557E2,-5.9358753E1,1.7151877E2,6.345633E2,-2.2948437E1,-1.0905938E2],"categories":[],"categories_nodes":[],"categories_segments":[],"categories_sizes":[],"default_left":[0,0,0,0,0,0,0,0,0,0,0,0,0,0,0,0,0,0,0,0,0,0,0,0,0,0,0,0,0,0,0,0,0],"id":42,"left_children":[1,3,-1,5,7,9,11,-1,-1,13,15,17,19,21,23,25,27,-1,29,31,-1,-1,-1,-1,-1,-1,-1,-1,-1,-1,-1,-1,-1],"loss_changes":[6.4783945E6,5.445525E6,0E0,7.3263945E6,1.4566E4,8.34854E6,5.5640835E6,0E0,0E0,1.542902E7,6.067263E6,3.939599E6,3.7267612E5,1.1838649E7,6.926756E6,2.1820995E6,4.753168E6,0E0,1.61849E6,5.311883E4,0E0,0E0,0E0,0E0,0E0,0E0,0E0,0E0,0E0,0E0,0E0,0E0,0E0],"parents":[2147483647,0,0,1,1,3,3,4,4,5,5,6,6,9,9,10,10,11,11,12,12,13,13,14,14,15,15,16,16,18,18,19,19],"right_children":[2,4,-1,6,8,10,12,-1,-1,14,16,18,20,22,24,26,28,-1,30,32,-1,-1,-1,-1,-1,-1,-1,-1,-1,-1,-1,-1,-1],"split_conditions":[9.906069E-1,9.6847135E-1,-5.3515314E2,8.0296594E-1,3.3051246E-1,4.6907753E-1,9.1598E-1,-1.2205899E2,-4.601309E2,4.5011407E-1,6.299446E-1,1.9793536E-1,4.9568814E-1,3.8617927E-1,5.1300164E-2,5.2281463E-1,3.5541266E-1,1.4925E1,2.4669392E-1,8.2915944E-1,6.846563E1,-1.9817583E2,1.04279305E2,-7.575E1,7.3934534E2,6.5565E1,-1.2492638E2,-4.9855557E2,-5.9358753E1,1.7151877E2,6.345633E2,-2.2948437E1,-1.0905938E2],"split_indices":[7,9,0,9,0,9,9,0,0,9,4,0,5,2,0,7,8,0,1,1,0,0,0,0,0,0,0,0,0,0,0,0,0],"split_type":[0,0,0,0,0,0,0,0,0,0,0,0,0,0,0,0,0,0,0,0,0,0,0,0,0,0,0,0,0,0,0,0,0],"sum_hessian":[1E2,9.9E1,1E0,9.7E1,2E0,8.5E1,1.2E1,1E0,1E0,5.6E1,2.9E1,7E0,5E0,5.2E1,4E0,2E1,9E0,2E0,5E0,3E0,2E0,1.6E1,3.6E1,1E0,3E0,9E0,1.1E1,5E0,4E0,2E0,3E0,2E0,1E0],"tree_param":{"num_deleted":"0","num_feature":"10","num_nodes":"33","size_leaf_vector":"1"}},{"base_weights":[-5.2988863E0,-3.60375E1,4.602844E2,1.0238799E2,-5.616566E2,-7.118164E2,1.902133E2,-1.1603378E3,-1.0398077E2,1.50125E2,-1.2590062E3,9.2089374E2,6.586807E1,1.6851718E2,-1.7326017E3,-1.2454635E3,2.167855E2,-9.375E-3,6.005625E1,-1.1286563E2,-4.1569455E2,-1.1654701E2,5.368539E2,-1.03012505E2,-5.720731E2,-4.5178127E1,-5.152805E2,5.7366016E2,-5.5116016E2,7.1259026E1,-3.0173178E2,4.0990625E2,-3.9002735E1,3.5281253E0,2.2770001E2,-1.8674376E2,-5.058047E1],"categories":[],"categories_nodes":[],"categories_segments":[],"categories_sizes":[],"default_left":[0,0,0,0,0,0,0,0,0,0,0,0,0,0,0,0,0,0,0,0,0,0,0,0,0,0,0,0,0,0,0,0,0,0,0,0,0],"id":43,"left_children":[1,3,-1,5,7,9,11,13,15,17,19,-1,21,-1,23,25,27,-1,-1,-1,-1,29,31,-1,-1,-1,-1,33,35,-1,-1,-1,-1,-1,-1,-1,-1],"loss_changes":[4.835072E6,7.3334155E6,0E0,5.856017E6,5.6333865E6,3.9621732E6,2.5934996E7,9.84251E6,5.029938E6,3.007504E4,3.76835E4,0E0,6.162528E6,0E0,1.040292E6,1.292129E6,3.3308425E6,0E0,0E0,0E0,0E0,1.6611329E7,1.1240898E7,0E0,0E0,0E0,0E0,8.2421325E5,4.18375E3,0E0,0E0,0E0,0E0,0E0,0E0,0E0,0E0],"parents":[2147483647,0,0,1,1,3,3,4,4,5,5,6,6,7,7,8,8,9,9,10,10,12,12,14,14,15,15,16,16,21,21,22,22,27,27,28,28],"right_children":[2,4,-1,6,8,10,12,14,16,18,20,-1,22,-1,24,26,28,-1,-1,-1,-1,30,32,-1,-1,-1,-1,34,36,-1,-1,-1,-1,-1,-1,-1,-1],"split_conditions":[9.976181E-1,7.940546E-1,4.602844E2,7.331602E-2,8.571247E-1,1.24843255E-1,1.323403E-1,1.8272172E-1,1.02050945E-1,3.6375204E-1,2.7033037E-1,9.2089374E2,5.278076E-1,1.6851718E2,1.990914E-1,4.9896502E-1,6.703386E-1,-9.375E-3,6.005625E1,-1.1286563E2,-4.1569455E2,4.0375492E-1,4.7283298E-1,-1.03012505E2,-5.720731E2,-4.5178127E1,-5.152805E2,3.4915257E-1,8.7917775E-1,7.1259026E1,-3.0173178E2,4.0990625E2,-3.9002735E1,3.5281253E0,2.2770001E2,-1.8674376E2,-5.058047E1],"split_indices":[8,6,0,8,6,5,8,9,9,1,0,0,6,0,0,0,7,0,0,0,0,6,8,0,0,0,0,4,0,0,0,0,0,0,0,0,0],"split_type":[0,0,0,0,0,0,0,0,0,0,0,0,0,0,0,0,0,0,0,0,0,0,0,0,0,0,0,0,0,0,0,0,0,0,0,0,0],"sum_hessian":[1E2,9.9E1,1E0,7.9E1,2E1,7E0,7.2E1,8E0,1.2E1,3E0,4E0,2E0,7E1,2E0,6E0,2E0,1E1,1E0,2E0,1E0,3E0,5.1E1,1.9E1,1E0,5E0,1E0,1E0,7E0,3E0,3.7E1,1.4E1,8E0,1.1E1,2E0,5E0,2E0,1E0],"tree_param":{"num_deleted":"0","num_feature":"10","num_nodes":"37","size_leaf_vector":"1"}},{"base_weights":[-3.9059792E0,2.2841602E1,-4.0179962E2,